<?xml version="1.0"?>
<opencv_storage>
<my_svm type_id="opencv-ml-svm">
  <svm_type>C_SVC</svm_type>
  <kernel><type>LINEAR</type></kernel>
  <C>1.</C>
  <term_criteria><epsilon>1.1920928955078125e-07</epsilon>
    <iterations>1000</iterations></term_criteria>
  <var_all>4752</var_all>
  <var_count>4752</var_count>
  <class_count>2</class_count>
  <class_labels type_id="opencv-matrix">
    <rows>1</rows>
    <cols>2</cols>
    <dt>i</dt>
    <data>
      -1 1</data></class_labels>
  <sv_total>1</sv_total>
  <support_vectors>
    <_>
      8.42577447e-06 8.49266235e-06 8.53900656e-06 8.18030367e-06
      7.55247993e-06 6.32053843e-06 4.86931231e-06 4.22410130e-06
      4.11940891e-06 4.14001670e-06 5.15933425e-06 1.00034495e-05
      1.03079410e-05 1.04431947e-05 9.07724734e-06 8.13102724e-06
      8.41218207e-06 8.72391229e-06 8.85803729e-06 9.02972442e-06
      8.92012849e-06 8.57763371e-06 8.68731058e-06 8.60486307e-06
      8.39843597e-06 8.37409516e-06 8.17249656e-06 7.08073867e-06
      7.91880302e-06 8.05378659e-06 8.03822422e-06 8.00423550e-06
      6.99961629e-06 6.08368100e-06 5.84802956e-06 6.17872320e-06
      6.92916683e-06 7.66763787e-06 8.35596256e-06 9.22371055e-06
      9.60577836e-06 9.80301684e-06 9.42148745e-06 8.35287847e-06
      5.52242409e-06 3.13043984e-06 2.37021209e-06 3.08366293e-06
      6.25874054e-06 6.85950135e-06 6.39687505e-06 5.97430653e-06
      5.46096771e-06 5.83098654e-06 5.35950949e-06 4.84736529e-06
      4.95296990e-06 4.66940764e-06 4.99794805e-06 5.08656422e-06
      5.17750141e-06 4.63661399e-06 5.03588990e-06 5.54765984e-06
      5.58578313e-06 5.62328341e-06 5.63096091e-06 5.16657155e-06
      5.13662917e-06 5.03475030e-06 4.43693489e-06 4.31410308e-06
      4.30012688e-06 4.82802034e-06 5.47006994e-06 4.94707592e-06
      3.33927505e-06 2.75115485e-06 2.13431645e-06 8.96285030e-07
      -3.11290592e-07 -1.34717197e-06 -4.20961806e-06 -8.27150507e-06
      -9.63740240e-06 -1.05569943e-05 -1.14563281e-05 -1.19487549e-05
      -1.20594395e-05 -1.16066203e-05 -1.12240277e-05 -1.06065727e-05
      -9.87937256e-06 -9.27527344e-06 -8.74995658e-06 -8.58582280e-06
      -8.62036359e-06 -8.57250598e-06 -8.15732074e-06 -7.56055124e-06
      -6.81016672e-06 -5.82117400e-06 -5.32169088e-06 -5.50946243e-06
      -5.97814096e-06 -6.40158669e-06 -6.38842948e-06 -6.27528834e-06
      -6.37205039e-06 -6.56258590e-06 -6.72136957e-06 -6.82913605e-06
      -5.96544851e-06 -4.20528841e-06 -2.07541598e-06 -2.93167318e-07
      4.46901055e-07 -3.25857826e-07 -5.77284595e-07 -1.19659518e-07
      1.62371816e-06 3.84135319e-06 5.51582252e-06 6.18462900e-06
      6.28142607e-06 6.17487512e-06 6.58567387e-06 7.28352006e-06
      8.18812350e-06 9.04668650e-06 9.64261289e-06 1.00553943e-05
      9.74959494e-06 7.14036605e-06 -1.79922517e-06 -5.70073962e-06
      -6.66590449e-06 -5.52130359e-06 -3.63392223e-06 -2.00430759e-06
      -1.48355070e-06 -1.32184550e-06 -2.27448140e-06 -2.58149203e-06
      8.51827463e-06 8.44404440e-06 8.29402506e-06 7.83258383e-06
      6.96774441e-06 5.69913664e-06 4.42730106e-06 3.82706457e-06
      3.54140889e-06 3.55481302e-06 3.83532824e-06 5.43040960e-06
      9.57877455e-06 9.95795745e-06 8.96328584e-06 7.62720629e-06
      7.79999664e-06 7.96964741e-06 8.31147008e-06 8.35826995e-06
      8.52588255e-06 8.62204706e-06 8.74549823e-06 8.09144058e-06
      7.98256406e-06 7.03245041e-06 6.92302183e-06 6.78546348e-06
      6.72578835e-06 7.68120481e-06 7.71592750e-06 7.84574786e-06
      6.81733172e-06 6.70056897e-06 6.19475486e-06 5.95897563e-06
      5.99422174e-06 7.19945956e-06 8.18805347e-06 9.16348108e-06
      9.85334555e-06 9.95022856e-06 9.84787857e-06 7.81422477e-06
      4.83586473e-06 3.32943705e-06 2.87417652e-06 3.98326529e-06
      6.54175255e-06 7.03164278e-06 7.08447033e-06 6.68312305e-06
      6.02197360e-06 6.30383238e-06 5.69443000e-06 4.89841614e-06
      4.92767003e-06 5.19534615e-06 5.46623596e-06 5.12997804e-06
      5.17590024e-06 4.69237239e-06 5.09339179e-06 5.02894545e-06
      5.69857593e-06 5.97218514e-06 6.10157895e-06 5.53726250e-06
      4.89889226e-06 4.77919821e-06 4.68899634e-06 4.77418234e-06
      5.40755036e-06 5.57734575e-06 6.26443216e-06 6.06589083e-06
      4.89557124e-06 4.27394889e-06 3.81413497e-06 3.39251574e-06
      2.33517039e-06 1.35174412e-06 -7.42803330e-09 -4.80956669e-06
      -7.30122656e-06 -8.66550363e-06 -1.00009320e-05 -1.10835863e-05
      -1.14216209e-05 -1.13385195e-05 -1.10661131e-05 -1.05329682e-05
      -1.00276357e-05 -9.63301409e-06 -9.17063153e-06 -8.91921354e-06
      -8.91175750e-06 -8.79773415e-06 -8.38844426e-06 -7.49888068e-06
      -6.60143996e-06 -5.80382357e-06 -5.33930961e-06 -5.60537637e-06
      -5.89338742e-06 -6.05988134e-06 -6.28680618e-06 -6.22270636e-06
      -6.52647896e-06 -6.86377371e-06 -7.00671353e-06 -6.86805424e-06
      -5.79903372e-06 -4.05054243e-06 -1.98272005e-06 -4.91459673e-07
      3.37131638e-07 -1.01945339e-07 -6.95551648e-07 -2.68746390e-07
      1.44382511e-06 3.90487594e-06 6.12714848e-06 6.43023532e-06
      6.08766459e-06 5.95756183e-06 6.07993024e-06 6.69711926e-06
      7.13739564e-06 7.70660972e-06 8.88244995e-06 9.26469875e-06
      8.28124666e-06 4.91936407e-06 -3.00027682e-06 -5.96873588e-06
      -6.49965250e-06 -5.59245746e-06 -3.84421764e-06 -2.58428781e-06
      -1.66488428e-06 -1.70568319e-06 -2.45656565e-06 -2.72596390e-06
      7.23384164e-06 7.18170577e-06 7.00726787e-06 6.23411779e-06
      5.05401340e-06 3.88093713e-06 3.20151821e-06 2.40224176e-06
      1.89439947e-06 1.91554932e-06 2.35372886e-06 2.80093650e-06
      3.35046411e-06 4.77073763e-06 5.62592459e-06 5.99519763e-06
      6.16787747e-06 7.00864030e-06 7.26307235e-06 7.74355885e-06
      7.38808694e-06 7.64046217e-06 8.47618503e-06 7.75539229e-06
      7.73740885e-06 6.99980501e-06 6.04911111e-06 6.27077088e-06
      7.25361042e-06 8.21707454e-06 8.17429554e-06 8.38962751e-06
      7.59922114e-06 7.31272712e-06 6.97044698e-06 6.82540349e-06
      6.88741648e-06 6.31633657e-06 7.69729650e-06 8.26939140e-06
      1.06358384e-05 1.10552237e-05 1.04201308e-05 7.49955507e-06
      5.06312108e-06 4.57785700e-06 4.68895269e-06 5.78416211e-06
      7.66967241e-06 8.02062459e-06 8.06123353e-06 8.44809347e-06
      8.26461746e-06 8.90495176e-06 7.60158491e-06 7.55703877e-06
      7.00621695e-06 7.32504668e-06 7.35335016e-06 6.83404733e-06
      6.43211979e-06 6.02326600e-06 6.06944195e-06 6.71183716e-06
      6.95658855e-06 7.24822303e-06 7.36592756e-06 7.36410584e-06
      6.69208021e-06 6.07824131e-06 6.38484516e-06 7.01497629e-06
      7.31980845e-06 8.22694710e-06 8.42038662e-06 8.04217962e-06
      8.29269902e-06 7.97964549e-06 7.20450362e-06 6.93176526e-06
      6.66396681e-06 6.38736674e-06 4.94179221e-06 3.34549941e-06
      -9.26804034e-07 -4.66002712e-06 -6.31395733e-06 -7.80912796e-06
      -8.58186559e-06 -9.10872041e-06 -9.42189854e-06 -9.84595954e-06
      -1.01786027e-05 -1.01517826e-05 -9.80288769e-06 -9.58745841e-06
      -9.81956327e-06 -9.46839464e-06 -8.81157121e-06 -7.65775349e-06
      -6.39566088e-06 -5.39648136e-06 -5.16371165e-06 -5.55868655e-06
      -5.85263160e-06 -5.97329063e-06 -6.35840161e-06 -6.59046964e-06
      -6.95695007e-06 -7.07015397e-06 -6.76060654e-06 -6.04685874e-06
      -4.86729050e-06 -2.64847722e-06 -8.93325137e-07 -3.33861749e-07
      1.36016197e-07 -3.69253371e-07 -5.15575437e-07 -3.89183185e-07
      2.02162983e-06 4.55188137e-06 6.61006470e-06 6.78259130e-06
      6.39709833e-06 6.37748826e-06 6.62606135e-06 6.99811471e-06
      7.94854805e-06 8.32697151e-06 9.36714514e-06 9.81785342e-06
      7.93062827e-06 -1.32140019e-06 -5.85786438e-06 -7.82179904e-06
      -6.72702026e-06 -5.78744903e-06 -4.57117903e-06 -3.58132934e-06
      -2.42923170e-06 -2.05007200e-06 -2.73220621e-06 -3.10555311e-06
      7.48051662e-06 7.37479377e-06 6.87109923e-06 5.69752592e-06
      4.44451962e-06 3.70407179e-06 3.06758056e-06 2.70558621e-06
      2.19866183e-06 2.03813124e-06 1.58503053e-06 1.59116269e-06
      2.23960933e-06 2.48304445e-06 7.76090474e-07 2.14634014e-07
      2.31783702e-06 4.90886032e-06 6.76818718e-06 7.22984714e-06
      8.15464318e-06 8.18566878e-06 7.15866554e-06 6.94032587e-06
      6.79387540e-06 5.79620155e-06 5.37412689e-06 5.65093933e-06
      7.30964166e-06 8.14195573e-06 7.99418467e-06 8.01764509e-06
      7.92333867e-06 7.32252420e-06 7.34281139e-06 6.51886012e-06
      5.92594961e-06 5.23588142e-06 5.94152061e-06 7.16496970e-06
      9.58697728e-06 9.97760981e-06 8.11894824e-06 5.61222396e-06
      4.87893749e-06 5.34046558e-06 6.65353900e-06 8.10042002e-06
      8.25134794e-06 8.63391142e-06 9.17953912e-06 9.57302291e-06
      9.49935747e-06 9.04260378e-06 8.57131454e-06 8.64904359e-06
      8.33735066e-06 7.91255570e-06 7.79286984e-06 7.85651991e-06
      7.52497681e-06 7.12298743e-06 7.54657867e-06 7.98943529e-06
      8.62819707e-06 8.87644728e-06 8.94158529e-06 8.05788659e-06
      7.11314897e-06 6.61095055e-06 6.41519046e-06 6.85091391e-06
      8.13091810e-06 8.53952497e-06 8.39197219e-06 8.25130883e-06
      8.20706555e-06 9.15562850e-06 1.02154645e-05 1.05576028e-05
      9.91576690e-06 8.34556704e-06 7.71153464e-06 6.55937129e-06
      4.34979574e-06 2.16195917e-06 -1.70792282e-06 -4.12291729e-06
      -5.54696817e-06 -6.58130602e-06 -8.01470469e-06 -9.21124501e-06
      -9.84259350e-06 -1.03919710e-05 -1.03428774e-05 -9.91094475e-06
      -9.86776467e-06 -9.74000523e-06 -9.35919797e-06 -8.51239383e-06
      -7.36196398e-06 -6.87236889e-06 -6.68140092e-06 -6.48242485e-06
      -6.34044682e-06 -6.55514532e-06 -7.17011062e-06 -7.70295537e-06
      -7.69439430e-06 -7.28616760e-06 -6.20126002e-06 -5.15841475e-06
      -3.72537920e-06 -2.55991904e-06 -1.78282755e-06 -1.64445362e-06
      -1.09955351e-06 -8.85245186e-07 -1.83915495e-06 -9.55946007e-07
      9.56427471e-07 3.51916492e-06 5.56227906e-06 6.38146685e-06
      6.67542054e-06 6.74969078e-06 6.82812879e-06 7.22734876e-06
      7.42084740e-06 8.10281927e-06 8.98703547e-06 9.38814992e-06
      6.17762498e-06 -4.34229241e-06 -8.36682466e-06 -9.47577882e-06
      -7.11283246e-06 -6.49208323e-06 -5.80813958e-06 -4.85071814e-06
      -4.05437913e-06 -3.15897705e-06 -3.37154597e-06 -3.39922985e-06
      8.33333979e-06 8.22216862e-06 7.48267303e-06 6.06655385e-06
      5.01918748e-06 4.15592876e-06 3.51692029e-06 3.20222830e-06
      3.10087671e-06 2.71805970e-06 1.03651234e-06 1.54468054e-07
      -5.36308789e-07 -4.16241733e-07 -1.35708626e-06 -5.06696040e-07
      6.82829750e-07 2.85037731e-06 5.57773865e-06 6.60603473e-06
      7.75179797e-06 7.86078635e-06 7.83737687e-06 7.25611153e-06
      6.66311507e-06 5.48984008e-06 4.87547322e-06 5.46431056e-06
      7.61900264e-06 8.69460382e-06 8.40495068e-06 7.76649358e-06
      7.40713449e-06 6.57861665e-06 6.58004274e-06 6.44017018e-06
      5.18817887e-06 4.90584080e-06 5.93637924e-06 6.75226647e-06
      8.16749798e-06 6.91448759e-06 5.62963351e-06 4.58099976e-06
      5.62600871e-06 7.51404878e-06 8.64387675e-06 8.33724971e-06
      7.60173498e-06 8.38142751e-06 8.92700155e-06 9.23623520e-06
      9.13641452e-06 8.89314288e-06 8.37410244e-06 8.46562307e-06
      7.69869803e-06 7.22729692e-06 7.91129060e-06 8.26588621e-06
      7.48849243e-06 7.31524642e-06 8.31282341e-06 9.16856516e-06
      9.02596821e-06 8.78180435e-06 8.30017962e-06 8.02853810e-06
      6.95702056e-06 6.08298842e-06 5.80149344e-06 6.06620461e-06
      6.64450363e-06 7.28450459e-06 6.74494459e-06 6.25246503e-06
      6.74277408e-06 7.73287229e-06 8.76688409e-06 1.05452482e-05
      1.06969173e-05 9.70878682e-06 7.31512318e-06 6.44656257e-06
      5.82644134e-06 4.62467688e-06 3.73780017e-06 2.32943444e-06
      -2.80998563e-07 -4.74519538e-06 -6.88625505e-06 -8.54824611e-06
      -9.72169619e-06 -1.06288244e-05 -1.08787262e-05 -1.04783285e-05
      -1.00712450e-05 -9.76939373e-06 -9.51609945e-06 -9.32478997e-06
      -8.75894966e-06 -8.38330470e-06 -7.86100827e-06 -6.98733948e-06
      -6.33998707e-06 -6.74453167e-06 -7.86328292e-06 -8.64908725e-06
      -8.76296417e-06 -7.80756454e-06 -6.50060110e-06 -5.36389007e-06
      -4.41517432e-06 -3.29459090e-06 -3.18598882e-06 -3.32265836e-06
      -2.94830420e-06 -2.85923466e-06 -2.15846035e-06 -1.24898088e-06
      1.13692818e-06 3.17400668e-06 5.24143434e-06 6.27626468e-06
      7.30727788e-06 7.83513588e-06 8.44295027e-06 8.76408558e-06
      8.67487233e-06 9.11450024e-06 9.76964475e-06 9.61182013e-06
      4.71133399e-06 -5.40975134e-06 -9.35413664e-06 -1.00368825e-05
      -7.26448116e-06 -6.49094818e-06 -6.03717672e-06 -5.48824573e-06
      -4.80247945e-06 -4.27378200e-06 -3.90777313e-06 -3.76405205e-06
      7.67950041e-06 7.50967956e-06 6.55758549e-06 5.17201897e-06
      4.51829510e-06 3.57555291e-06 2.69979455e-06 2.55712166e-06
      2.78509924e-06 2.11048564e-06 9.39474319e-07 -7.10244763e-07
      -2.41774819e-06 -2.92001437e-06 -3.15146281e-06 -2.14118950e-06
      9.40894580e-08 2.10016424e-06 3.29187242e-06 3.42963108e-06
      5.36060043e-06 7.95332744e-06 8.10003530e-06 6.22462403e-06
      4.77165213e-06 4.10453640e-06 3.57848717e-06 4.44669695e-06
      6.49829735e-06 8.07370907e-06 8.75878322e-06 6.75826095e-06
      5.63722097e-06 5.69323993e-06 6.03341960e-06 5.80157212e-06
      5.51528319e-06 5.95529445e-06 6.81478832e-06 7.12343081e-06
      5.82767552e-06 4.32144861e-06 3.51754011e-06 4.71830299e-06
      7.44975341e-06 9.35935623e-06 9.34915897e-06 8.89914918e-06
      8.59159809e-06 8.65381298e-06 8.53729853e-06 8.19938305e-06
      7.19136096e-06 6.74722560e-06 6.78213519e-06 7.01459248e-06
      5.95208849e-06 6.46890976e-06 6.43254907e-06 8.12992585e-06
      8.29483270e-06 7.83140422e-06 9.12665200e-06 9.52299797e-06
      9.51215861e-06 8.61293847e-06 6.99059819e-06 6.43954263e-06
      5.45282774e-06 4.85060764e-06 4.17635010e-06 4.28462636e-06
      4.20518290e-06 3.97104532e-06 2.93406083e-06 3.03827846e-06
      4.19584148e-06 6.36317600e-06 7.63103344e-06 7.46833348e-06
      6.70555528e-06 6.51677510e-06 6.32134743e-06 5.09352185e-06
      4.65693256e-06 4.62882508e-06 4.14628403e-06 3.18573188e-06
      1.17806326e-06 -1.42949432e-06 -4.97052315e-06 -7.80810569e-06
      -9.45479860e-06 -1.07114747e-05 -1.05814615e-05 -9.68438508e-06
      -8.95152243e-06 -8.88042450e-06 -9.48648358e-06 -9.70150813e-06
      -9.72226553e-06 -9.26103348e-06 -8.28818884e-06 -7.16899012e-06
      -5.88636476e-06 -5.77056471e-06 -6.88215823e-06 -8.16671763e-06
      -8.01490205e-06 -7.13475902e-06 -5.96204700e-06 -4.50341668e-06
      -2.75282105e-06 -1.95812981e-06 -1.91795834e-06 -2.62345566e-06
      -2.99122144e-06 -2.84764019e-06 -1.22719166e-06 -7.81565532e-08
      9.85756969e-07 2.76918331e-06 4.98807276e-06 6.43958265e-06
      7.36177481e-06 7.47795457e-06 7.98165274e-06 8.26838550e-06
      8.32743990e-06 8.68875850e-06 9.07791218e-06 8.56404858e-06
      5.21462425e-06 -4.36226128e-06 -8.01044553e-06 -8.91769378e-06
      -7.05431921e-06 -5.99667010e-06 -5.30245461e-06 -5.10038035e-06
      -5.02682178e-06 -4.99122052e-06 -4.67719246e-06 -4.52036693e-06
      5.90906438e-06 5.60015951e-06 4.74092894e-06 3.61373645e-06
      2.93704738e-06 2.24891369e-06 1.48194601e-06 1.59268109e-06
      1.94063136e-06 1.63396010e-06 5.29211263e-07 -1.18045273e-06
      -1.95798611e-06 -1.58625880e-06 -2.73557998e-06 -2.14037868e-06
      -6.29007161e-07 1.40946804e-06 2.19565572e-06 2.18177274e-06
      2.23799429e-06 5.78578829e-06 8.60008549e-06 7.73318516e-06
      5.50094592e-06 4.11961992e-06 4.38246479e-06 5.29982981e-06
      7.78106278e-06 9.07578033e-06 8.71566681e-06 6.94363143e-06
      4.60496631e-06 4.76034757e-06 5.42520320e-06 6.37434687e-06
      6.59678153e-06 5.88148487e-06 6.35635297e-06 5.67037932e-06
      3.30584749e-06 2.66702955e-06 2.74725926e-06 5.10766085e-06
      8.27714666e-06 1.02452632e-05 9.92645255e-06 9.68682798e-06
      9.15049804e-06 8.87784790e-06 7.84744498e-06 6.55785743e-06
      6.29779288e-06 6.09813833e-06 7.29027533e-06 7.92336596e-06
      6.66497453e-06 6.38014308e-06 6.08604796e-06 7.44716090e-06
      7.24521760e-06 7.65829463e-06 8.59301781e-06 9.89866658e-06
      8.58012299e-06 7.25952941e-06 5.97929238e-06 5.00093529e-06
      5.20826507e-06 3.77256310e-06 3.30433272e-06 3.56004421e-06
      3.53139058e-06 2.38229518e-06 1.60010779e-06 1.81985536e-06
      3.19570700e-06 5.93623963e-06 7.28231089e-06 5.87755085e-06
      4.60356296e-06 4.17219371e-06 4.37534482e-06 5.32744980e-06
      4.72773672e-06 3.92161337e-06 3.78991854e-06 3.46831234e-06
      1.57507816e-06 -5.57140197e-07 -2.08879896e-06 -3.19229207e-06
      -6.84902807e-06 -9.33128194e-06 -9.28759619e-06 -8.65359380e-06
      -7.87133104e-06 -7.77203422e-06 -8.65381389e-06 -9.54564712e-06
      -1.07949163e-05 -1.05608769e-05 -9.64730407e-06 -7.65995992e-06
      -6.24360018e-06 -5.82083248e-06 -7.26825147e-06 -8.49685330e-06
      -8.73056706e-06 -7.92706942e-06 -6.83617463e-06 -5.28792771e-06
      -3.03480601e-06 -1.32615276e-06 -2.04438084e-06 -2.96023950e-06
      -3.28056490e-06 -1.50251026e-06 6.22898824e-07 1.15860098e-06
      1.57116006e-06 2.86854629e-06 4.99332145e-06 6.64956360e-06
      7.16047316e-06 7.74710588e-06 8.03771400e-06 8.47590491e-06
      8.76407285e-06 8.92986918e-06 8.79739764e-06 8.52286303e-06
      7.01601584e-06 -1.62128663e-06 -5.21694983e-06 -6.93076072e-06
      -5.74949945e-06 -5.11510098e-06 -4.87781381e-06 -4.32674096e-06
      -4.57836404e-06 -5.05187700e-06 -5.29023600e-06 -5.32580543e-06
      4.46117656e-06 4.11854171e-06 3.13197279e-06 2.22978019e-06
      1.74291313e-06 1.29699936e-06 8.59475847e-07 9.72513249e-07
      1.18945673e-06 5.87087470e-07 -1.03816308e-06 -1.05210972e-06
      5.07367133e-07 9.17572322e-07 -2.53682657e-07 -5.21631705e-07
      -1.85931725e-07 6.37081826e-07 3.23129825e-07 4.28337415e-07
      1.64071662e-06 3.15607872e-06 7.88496800e-06 9.41615599e-06
      7.35502226e-06 5.78627441e-06 5.96805648e-06 7.09755886e-06
      9.71077679e-06 1.12252110e-05 1.02880676e-05 7.01670206e-06
      5.54202234e-06 5.70922839e-06 6.12158328e-06 6.32818228e-06
      5.85859334e-06 5.44967179e-06 4.52802624e-06 3.12967427e-06
      2.13075009e-06 2.05614492e-06 4.03648528e-06 6.72528540e-06
      1.00739744e-05 1.12632570e-05 1.08642589e-05 1.06215530e-05
      9.92693640e-06 9.53919880e-06 8.19709931e-06 6.54385940e-06
      6.46646413e-06 7.48217872e-06 7.72609746e-06 8.52057019e-06
      7.43240525e-06 6.84638735e-06 6.36442473e-06 7.19354966e-06
      7.00728151e-06 7.01840236e-06 7.87176941e-06 8.71488101e-06
      8.40004395e-06 6.44449983e-06 5.54911685e-06 5.77659921e-06
      6.20750325e-06 5.31965316e-06 4.71110206e-06 4.01313127e-06
      4.11610017e-06 2.87964622e-06 1.42478007e-06 1.52042969e-06
      2.99501517e-06 5.77052469e-06 6.90860543e-06 6.00194699e-06
      4.43693170e-06 3.44770206e-06 3.75133664e-06 4.12001418e-06
      3.82554936e-06 3.11279155e-06 2.60861816e-06 2.66767324e-06
      1.28829549e-06 -3.51840470e-07 -1.73732542e-06 -1.29069269e-06
      -1.83762518e-06 -4.10579742e-06 -6.05408559e-06 -7.16188424e-06
      -6.75999991e-06 -7.19090940e-06 -8.19965226e-06 -9.77664331e-06
      -1.12228618e-05 -1.12496837e-05 -1.02048707e-05 -7.55487372e-06
      -6.01956390e-06 -4.54992323e-06 -5.79800735e-06 -7.52392998e-06
      -8.29375313e-06 -7.57748876e-06 -6.19447519e-06 -4.35749689e-06
      -2.03707896e-06 -1.39242354e-06 -2.91719630e-06 -3.48078402e-06
      -1.68210420e-06 1.11205497e-06 2.38702273e-06 1.88530078e-06
      1.72077307e-06 3.53862401e-06 5.57289331e-06 7.17791954e-06
      7.80487881e-06 8.10639904e-06 8.41388101e-06 8.77213552e-06
      9.04561784e-06 9.04115223e-06 8.66735809e-06 8.46077819e-06
      7.87844692e-06 5.03105366e-06 -2.42997635e-06 -4.46045442e-06
      -3.86742158e-06 -4.05967012e-06 -4.16614284e-06 -4.08699043e-06
      -4.52082259e-06 -5.05712023e-06 -5.56664645e-06 -5.86830811e-06
      3.38348195e-06 3.15264197e-06 2.15091723e-06 1.21136782e-06
      7.12577616e-07 3.84056506e-07 1.73643102e-07 3.30604649e-07
      9.99966005e-07 4.13535503e-07 -6.24780057e-07 1.34103323e-06
      2.75744969e-06 3.23782024e-06 1.36268852e-06 6.62934667e-07
      3.55485383e-07 8.43953217e-07 -3.25739364e-07 -1.20133814e-06
      2.04617166e-07 3.37635652e-06 5.41723239e-06 1.00140705e-05
      8.93879587e-06 7.08365042e-06 6.13425664e-06 7.08203834e-06
      8.52907669e-06 1.06011885e-05 9.69425400e-06 7.68904647e-06
      6.31159628e-06 6.28736598e-06 6.39458540e-06 5.58614329e-06
      3.12619431e-06 2.92639652e-06 3.25963333e-06 2.65379754e-06
      1.74001877e-06 3.10469636e-06 5.60916760e-06 7.07046183e-06
      1.02186759e-05 1.16697420e-05 1.10272749e-05 1.05724775e-05
      1.04269684e-05 8.99933821e-06 7.45778925e-06 6.20495803e-06
      6.44386728e-06 7.90623744e-06 9.46541059e-06 9.52936989e-06
      8.45418617e-06 7.77433161e-06 6.94584969e-06 6.13907196e-06
      5.73923307e-06 4.47918046e-06 5.75765989e-06 6.32675119e-06
      7.15651959e-06 6.11324003e-06 5.75764079e-06 7.36109041e-06
      7.99733061e-06 7.59529985e-06 6.70590725e-06 5.43991200e-06
      5.22989194e-06 3.14877479e-06 1.53184033e-06 1.50962273e-06
      3.55965540e-06 6.31625471e-06 7.42312386e-06 6.28830003e-06
      4.37361632e-06 3.90938385e-06 4.35490620e-06 4.32467368e-06
      3.45764283e-06 3.16728529e-06 3.39952135e-06 4.11026213e-06
      2.57881493e-06 8.50363449e-07 2.08849684e-07 9.67793653e-07
      8.31495925e-07 -5.77368098e-07 -1.14137686e-06 -2.06308141e-06
      -4.06154732e-06 -6.16570287e-06 -7.60524972e-06 -1.00178286e-05
      -1.15217827e-05 -1.13849310e-05 -1.00945172e-05 -7.18583442e-06
      -5.75337799e-06 -4.09859740e-06 -4.31441913e-06 -5.79400967e-06
      -6.69949941e-06 -6.11206315e-06 -4.24157861e-06 -2.12666873e-06
      -1.79135668e-06 -1.99574765e-06 -4.10058783e-06 -3.30919465e-06
      -2.38532095e-07 2.12445821e-06 2.37897552e-06 1.84191435e-06
      2.17719980e-06 4.27082568e-06 6.39746713e-06 8.58392104e-06
      8.66067967e-06 9.18949081e-06 9.52072787e-06 9.72528051e-06
      1.02120302e-05 1.00555299e-05 9.55955056e-06 9.23555581e-06
      8.44167698e-06 6.00210433e-06 -5.62937537e-08 -2.09009318e-06
      -1.80167672e-06 -2.52571590e-06 -3.32488571e-06 -3.99687133e-06
      -4.37582230e-06 -4.99676389e-06 -5.69189478e-06 -6.10528377e-06
      5.85323733e-06 5.50303366e-06 4.68110511e-06 3.65394339e-06
      2.87845432e-06 2.54588599e-06 2.42422971e-06 2.55991063e-06
      2.74437116e-06 2.63858351e-06 2.57351235e-06 3.47559171e-06
      4.37475865e-06 4.32357547e-06 1.83623877e-06 4.54425617e-07
      6.08263520e-07 8.26332496e-07 -9.59942668e-07 -3.17793501e-06
      -1.40207771e-06 2.26745624e-06 5.00618944e-06 8.43307225e-06
      9.26900793e-06 7.61757974e-06 6.59862189e-06 6.40834287e-06
      7.20096159e-06 8.31256239e-06 8.30411318e-06 7.38309564e-06
      6.72442957e-06 6.60380829e-06 6.32609044e-06 4.08655660e-06
      1.26938926e-06 2.43955833e-06 3.45087915e-06 3.08458107e-06
      3.19715173e-06 5.48841444e-06 5.76018738e-06 7.17723560e-06
      9.87847216e-06 1.11877116e-05 1.05503850e-05 9.94152470e-06
      8.34804723e-06 8.04698539e-06 6.29215265e-06 7.21120932e-06
      7.81664676e-06 9.26695066e-06 9.72243834e-06 1.16033470e-05
      1.05041090e-05 9.21922856e-06 8.05915261e-06 5.71763348e-06
      4.33484001e-06 4.27528585e-06 4.40342274e-06 5.64903394e-06
      6.12490567e-06 6.54242740e-06 7.06990704e-06 8.38515098e-06
      8.88770046e-06 8.51260575e-06 7.15447004e-06 6.15059389e-06
      5.19362902e-06 3.29664363e-06 1.84811745e-06 1.77205231e-06
      3.29956674e-06 6.55903068e-06 7.79359107e-06 6.68108078e-06
      5.14217163e-06 4.90968841e-06 5.50267032e-06 5.70442626e-06
      4.57545048e-06 3.60600347e-06 4.14438955e-06 4.97213978e-06
      4.71189242e-06 3.44106638e-06 2.65223775e-06 2.87814805e-06
      3.29424552e-06 2.73330556e-06 2.24695486e-06 2.21034929e-06
      1.55016733e-06 -3.27480325e-06 -7.20067010e-06 -1.00364750e-05
      -1.13549131e-05 -1.10650226e-05 -8.80972766e-06 -5.38860240e-06
      -3.47091554e-06 -2.52655877e-06 -3.33590810e-06 -3.94693916e-06
      -3.79316907e-06 -2.69541169e-06 -7.67900985e-07 -2.60895916e-07
      -1.77035395e-06 -2.43293471e-06 -3.18668299e-06 -9.83927862e-07
      1.29280033e-06 2.66175630e-06 3.54858162e-06 2.97766519e-06
      3.54979511e-06 5.82651728e-06 7.94752214e-06 9.06911191e-06
      9.00341638e-06 9.28137524e-06 1.00984480e-05 1.05891168e-05
      1.10214214e-05 1.06487732e-05 9.76618867e-06 8.65185120e-06
      7.16794375e-06 5.04502350e-06 4.51940480e-07 -7.19214370e-07
      -4.96390129e-08 -1.00276441e-06 -1.64841913e-06 -2.85906845e-06
      -3.32972263e-06 -4.32994875e-06 -5.44386785e-06 -5.87891964e-06
      6.98164513e-06 6.82305745e-06 6.19353250e-06 5.16892169e-06
      3.87214141e-06 3.37740562e-06 3.18160937e-06 3.61346929e-06
      3.84757732e-06 3.77699189e-06 3.74092588e-06 4.40418262e-06
      4.55861300e-06 4.37952622e-06 1.85279146e-06 8.54324412e-07
      9.38256562e-07 8.20253319e-07 -1.59969704e-06 -5.18283787e-06
      -3.21119660e-06 1.71601926e-06 4.91355604e-06 5.03123874e-06
      8.84360634e-06 7.55916199e-06 6.81578194e-06 6.83795770e-06
      7.65154437e-06 9.04450735e-06 8.04380034e-06 7.64390006e-06
      6.87265037e-06 6.62848015e-06 6.05358628e-06 2.68752774e-06
      8.18977526e-07 2.59648823e-06 4.12282270e-06 4.19509706e-06
      5.06446031e-06 5.94919720e-06 5.61755223e-06 6.43617614e-06
      9.25710810e-06 1.01616179e-05 9.54511506e-06 8.75821570e-06
      7.73265401e-06 7.09651113e-06 7.32504395e-06 8.51699861e-06
      9.27594283e-06 1.06422094e-05 1.16038573e-05 1.20920240e-05
      1.17009877e-05 9.85122824e-06 7.76357319e-06 6.33049103e-06
      5.35352501e-06 5.67337383e-06 6.13821476e-06 6.45156479e-06
      5.69297254e-06 6.06494586e-06 7.38577455e-06 9.37828190e-06
      9.35966909e-06 7.70044426e-06 5.86222768e-06 4.45072465e-06
      4.58141358e-06 3.54854137e-06 2.62191952e-06 3.03226125e-06
      4.72634201e-06 6.75957290e-06 7.27638599e-06 7.09005644e-06
      6.09396147e-06 5.81558925e-06 6.04912384e-06 5.20331378e-06
      5.06832203e-06 4.52602717e-06 4.78559969e-06 5.99751365e-06
      6.20127821e-06 5.56715258e-06 5.73146053e-06 4.94458754e-06
      4.77432195e-06 4.84058046e-06 5.19331797e-06 5.18002025e-06
      4.19585103e-06 1.40971292e-06 -4.08411461e-06 -8.93830020e-06
      -1.04899200e-05 -9.78059416e-06 -7.63089974e-06 -4.06281151e-06
      -2.68235135e-06 -2.76926153e-06 -3.17495960e-06 -3.14075919e-06
      -1.61792673e-06 3.32516777e-07 8.38747440e-07 -4.98913266e-07
      -2.17905017e-06 -2.08551137e-06 -1.13304782e-06 1.16377510e-06
      2.69752923e-06 3.98216753e-06 3.79951211e-06 3.94489234e-06
      4.92682830e-06 7.53575159e-06 9.71912505e-06 1.02315080e-05
      9.50970298e-06 9.83304835e-06 1.02315125e-05 1.08155518e-05
      1.08328595e-05 9.69624853e-06 8.48313630e-06 7.10080712e-06
      5.52370784e-06 5.82200528e-07 -3.64792385e-07 2.65659878e-07
      1.50395806e-06 1.24488281e-06 1.03525383e-06 -4.46658746e-08
      -1.98387238e-06 -3.84180612e-06 -5.16951741e-06 -5.81021368e-06
      7.65666027e-06 7.45754642e-06 6.78254128e-06 5.68360929e-06
      4.19259914e-06 3.51562608e-06 3.83003271e-06 4.34828144e-06
      4.20363904e-06 3.72990849e-06 3.85810654e-06 4.26307497e-06
      3.88881017e-06 3.21305856e-06 1.10285123e-06 8.15833744e-07
      8.87232147e-07 4.29257000e-07 -2.14786905e-06 -4.39790756e-06
      -2.57113061e-06 1.52545840e-06 4.80155222e-06 4.75438492e-06
      8.50934521e-06 6.88693126e-06 6.21364143e-06 7.12301971e-06
      8.83995199e-06 1.05044373e-05 9.40853170e-06 7.44234285e-06
      5.34751052e-06 1.80858319e-06 1.64713796e-07 2.24213835e-07
      7.86341104e-07 2.85602800e-06 5.68143196e-06 6.96911184e-06
      6.91617470e-06 5.20683398e-06 5.00946999e-06 5.98957877e-06
      8.38575943e-06 9.25953100e-06 8.50395372e-06 7.52898268e-06
      6.68306257e-06 7.23321045e-06 7.82440475e-06 9.75788407e-06
      1.03876000e-05 1.14316954e-05 1.20612694e-05 1.21390776e-05
      1.03501097e-05 8.48545005e-06 6.32230422e-06 6.34216349e-06
      6.96715688e-06 8.32197384e-06 8.88867544e-06 8.28835073e-06
      6.54526366e-06 6.30073237e-06 7.41200392e-06 8.62217348e-06
      8.70428721e-06 5.90559875e-06 4.22190578e-06 3.43039278e-06
      4.02666774e-06 3.67523762e-06 3.38644622e-06 3.35988420e-06
      5.06136394e-06 6.20265564e-06 6.72832766e-06 7.50977370e-06
      6.79437562e-06 6.44195916e-06 5.72476483e-06 4.64899040e-06
      4.78720449e-06 5.22011715e-06 5.04949094e-06 5.08156654e-06
      5.75684408e-06 5.53767086e-06 6.21077925e-06 5.31723981e-06
      5.17567287e-06 5.40052770e-06 5.62528112e-06 6.15991212e-06
      5.50609229e-06 3.23192444e-06 -1.57056419e-07 -3.10340124e-06
      -6.42297846e-06 -7.18271349e-06 -5.71168357e-06 -2.39812130e-06
      -2.03011541e-06 -2.57245756e-06 -3.12361703e-06 -2.65401923e-06
      -1.42587851e-06 -2.25548689e-07 -1.92372283e-07 -1.85153101e-06
      -1.77673894e-06 -8.05536786e-07 4.07573566e-07 2.21658092e-06
      4.29286865e-06 5.52939946e-06 5.19078822e-06 6.08308619e-06
      7.16468412e-06 9.54624284e-06 1.12225052e-05 1.12736261e-05
      9.97429015e-06 9.95678511e-06 1.01616015e-05 1.04105511e-05
      1.02749227e-05 8.76698778e-06 7.18726824e-06 4.57868782e-06
      7.36363518e-07 -1.07739766e-06 -1.16290771e-07 1.67275664e-06
      4.38698498e-06 5.83829524e-06 5.37104688e-06 1.77138361e-06
      -1.05580568e-06 -3.73972080e-06 -5.35855543e-06 -5.73662737e-06
      6.71582575e-06 6.40049757e-06 5.71726196e-06 4.49173558e-06
      2.86149020e-06 2.41141811e-06 3.00759530e-06 3.68806332e-06
      3.07812161e-06 2.69642828e-06 2.78219545e-06 3.66469044e-06
      3.27756675e-06 2.21162713e-06 2.85513806e-07 2.08190428e-07
      2.75911020e-07 -8.28419218e-08 -2.39755695e-06 -2.98891223e-06
      -1.20248967e-06 2.68905592e-06 6.55340409e-06 6.78072502e-06
      9.29462931e-06 7.41238910e-06 6.75826504e-06 7.78377671e-06
      9.78109620e-06 1.11254940e-05 8.95046469e-06 3.87125692e-06
      9.60984181e-08 -9.79908123e-07 -1.99554552e-06 -1.75610251e-06
      -1.25735768e-08 2.94095980e-06 6.79989216e-06 1.01828218e-05
      9.08932907e-06 6.59850321e-06 5.84068130e-06 6.82414384e-06
      9.21215451e-06 9.88091870e-06 9.03332329e-06 7.52665164e-06
      7.06547780e-06 8.21015692e-06 9.48131492e-06 9.45755983e-06
      1.05566678e-05 1.12528833e-05 1.18812350e-05 1.19451797e-05
      9.12361793e-06 7.10336781e-06 5.81711174e-06 6.53862071e-06
      8.57921350e-06 1.05479894e-05 1.00645138e-05 9.05554680e-06
      7.54278153e-06 6.69327528e-06 7.49031960e-06 8.84484325e-06
      8.12228882e-06 5.48707567e-06 3.29133877e-06 3.10422615e-06
      3.62363289e-06 3.56595933e-06 3.59067576e-06 4.88800288e-06
      5.09191932e-06 5.69356507e-06 6.56061729e-06 7.14166117e-06
      6.22643847e-06 4.72135252e-06 5.04768013e-06 5.01105342e-06
      4.83015492e-06 5.52734082e-06 4.65847552e-06 3.72984437e-06
      3.56862029e-06 5.53055634e-06 6.31526245e-06 5.74696287e-06
      5.48059370e-06 5.82338453e-06 5.88715648e-06 6.40219150e-06
      6.09148765e-06 5.10362861e-06 2.79041546e-06 4.23993612e-07
      -8.60874650e-07 -1.40820373e-06 -1.72773935e-06 -6.67525001e-07
      -1.37967299e-06 -1.65576796e-06 -2.10708845e-06 -1.86588613e-06
      -6.25930966e-07 -8.49391135e-09 -1.06084906e-06 -1.81312896e-06
      -6.40485894e-07 7.35392121e-07 1.19232106e-06 2.97126144e-06
      5.30959232e-06 6.89929584e-06 7.13437385e-06 7.91450930e-06
      8.42370355e-06 1.04330120e-05 1.15350358e-05 1.19274355e-05
      1.06101761e-05 1.00767274e-05 9.63043567e-06 9.88996908e-06
      9.29949692e-06 8.16362535e-06 4.94310370e-06 2.83271731e-07
      -1.93300963e-07 7.62811567e-07 2.32136904e-06 3.47260152e-06
      4.98077907e-06 6.08014261e-06 3.33460798e-06 9.89675868e-07
      -2.06441723e-06 -4.52085533e-06 -5.69150188e-06 -5.84133295e-06
      1.28165368e-06 9.01638259e-07 2.31385400e-07 -9.53582003e-07
      -2.49664595e-06 -2.80514587e-06 -1.93744381e-06 -1.57231830e-06
      -2.53479448e-06 -2.20918719e-06 9.43162604e-07 2.55305872e-06
      2.79416236e-06 1.82945644e-06 -4.26730907e-07 -4.72402320e-07
      -2.08574150e-07 -7.29440501e-07 -3.75459194e-06 -5.39269922e-06
      -1.78046992e-06 2.95016548e-06 7.01970293e-06 1.20104723e-05
      9.31770592e-06 7.17161447e-06 6.30293835e-06 7.74611999e-06
      8.00316775e-06 6.04627439e-06 4.02847172e-06 1.28490638e-06
      -1.59113688e-06 -4.41307975e-06 -1.00150464e-05 -9.59069621e-06
      -2.51229540e-06 2.27170199e-06 5.28329156e-06 1.00763164e-05
      9.77278978e-06 7.31641649e-06 6.25059056e-06 7.59830937e-06
      9.97102779e-06 9.86013765e-06 8.59635475e-06 7.63982007e-06
      7.94603693e-06 8.86511680e-06 9.65916934e-06 1.02166459e-05
      1.09979292e-05 1.17147456e-05 1.25356109e-05 1.19786928e-05
      9.10064591e-06 6.20791980e-06 5.02305647e-06 5.96383597e-06
      7.93021172e-06 1.07678798e-05 1.05385943e-05 8.90875435e-06
      7.33491970e-06 7.63081243e-06 8.93852757e-06 9.46914315e-06
      7.95516735e-06 5.26309168e-06 2.69177758e-06 3.08271478e-06
      3.29267641e-06 3.52252550e-06 3.86172087e-06 5.19437572e-06
      4.91327182e-06 5.62716514e-06 7.37917571e-06 7.63911794e-06
      6.28629323e-06 4.28448129e-06 5.17963008e-06 6.14683859e-06
      6.25361463e-06 6.26656265e-06 5.05422304e-06 3.10697897e-06
      2.81963480e-06 4.73452428e-06 5.56983923e-06 5.33003504e-06
      5.86804572e-06 6.20764331e-06 6.07463062e-06 6.25688153e-06
      6.27208055e-06 5.14556814e-06 3.83686074e-06 2.05882907e-06
      1.00404702e-06 3.79778783e-07 -1.32401067e-06 -1.97332429e-06
      -2.47136427e-06 -2.85679084e-06 -3.30482749e-06 -3.76813728e-06
      -3.22442838e-06 -3.21607331e-06 -3.30875559e-06 -2.98395616e-06
      -2.15861496e-06 -9.65888987e-08 3.22719984e-07 2.63688526e-06
      4.60569208e-06 6.16291527e-06 6.60356091e-06 7.25868222e-06
      7.69715552e-06 9.58635246e-06 1.01516498e-05 1.03877337e-05
      9.31636714e-06 8.53566326e-06 8.00568978e-06 8.33280228e-06
      7.97102439e-06 5.72852332e-06 4.46312328e-07 -8.35108551e-07
      -4.19787170e-07 1.67238989e-06 2.73787941e-06 2.10679809e-06
      2.12650457e-06 1.30913782e-06 -1.31805237e-07 -2.13687053e-06
      -3.65853316e-06 -5.16776436e-06 -6.16644002e-06 -6.03149374e-06
      2.08535440e-07 -1.55579045e-07 -8.00886767e-07 -1.96529891e-06
      -3.48865910e-06 -3.73614216e-06 -3.16408364e-06 -2.90420712e-06
      -3.85533622e-06 -4.40976100e-06 -8.73937040e-07 2.15571822e-06
      2.84125986e-06 2.04647313e-06 -2.27394253e-07 -7.18017930e-07
      -1.18225432e-06 -3.57220233e-06 -6.82523250e-06 -8.23500250e-06
      -5.20008598e-06 2.72861098e-06 6.99236898e-06 1.26617506e-05
      1.05713734e-05 8.32252317e-06 7.05304183e-06 4.86743329e-06
      4.94548476e-06 5.62272271e-06 2.45523256e-06 -5.92472531e-07
      -3.69459303e-06 -9.34411855e-06 -1.23130858e-05 -1.17237432e-05
      -7.86310466e-06 1.40436418e-06 5.46720412e-06 6.77033677e-06
      6.22247580e-06 2.73617638e-06 1.77980894e-06 2.67634323e-06
      5.39374741e-06 6.31880584e-06 5.08147150e-06 5.26024633e-06
      7.62760510e-06 9.22089293e-06 9.69945177e-06 9.44182284e-06
      1.02331787e-05 1.14103177e-05 1.30052085e-05 1.33703043e-05
      1.11035179e-05 6.70968620e-06 4.95623499e-06 5.76874481e-06
      8.21758476e-06 9.39865913e-06 8.35259925e-06 7.17272997e-06
      7.33564229e-06 8.45600698e-06 1.04990177e-05 1.05753770e-05
      1.00260258e-05 7.16420527e-06 4.35289849e-06 4.55113877e-06
      5.16686077e-06 4.33686409e-06 4.88965907e-06 5.40568954e-06
      5.05963044e-06 6.77683647e-06 9.26433950e-06 1.01800060e-05
      7.41214853e-06 4.75422439e-06 4.60713136e-06 4.75020352e-06
      4.01736816e-06 3.16229466e-06 2.34037611e-06 1.22538233e-06
      1.54733414e-06 3.20774689e-06 3.78846971e-06 4.03270997e-06
      5.21637276e-06 5.39927623e-06 4.79574010e-06 4.39996757e-06
      4.08539108e-06 3.59353317e-06 2.53217672e-06 1.08088341e-06
      -2.27976400e-07 -2.85549731e-06 -3.15982743e-06 -2.61752916e-06
      -3.37803999e-06 -4.32113029e-06 -5.81020458e-06 -6.10879715e-06
      -5.51173798e-06 -5.32932290e-06 -5.50895220e-06 -5.49372180e-06
      -5.81099675e-06 -5.35793379e-06 -5.13862324e-06 -3.49956440e-06
      -1.70072224e-06 1.17915295e-06 3.69212171e-06 3.53914857e-06
      1.51405527e-06 2.94014012e-06 5.19344439e-06 5.92194783e-06
      5.59403452e-06 4.86425188e-06 4.21678442e-06 3.94972585e-06
      2.71770682e-06 8.03472062e-07 -9.83542122e-07 -1.65786844e-06
      -1.53150302e-06 -7.34560729e-07 6.81168046e-08 -3.75856359e-08
      -2.19539146e-07 -2.28432100e-06 -3.66296467e-06 -4.16045486e-06
      -4.70255873e-06 -5.26821304e-06 -5.78876461e-06 -5.41971804e-06
      8.53425888e-07 4.42188565e-07 -3.37416708e-07 -1.50512244e-06
      -3.04544324e-06 -3.46023648e-06 -3.10109158e-06 -3.14230056e-06
      -4.05618903e-06 -5.09471147e-06 -1.27531894e-06 1.98012049e-06
      2.99046474e-06 2.32007778e-06 -3.68646766e-07 -2.01071589e-06
      -4.61705167e-06 -5.33278535e-06 -7.23023686e-06 -8.24446124e-06
      -6.62746106e-06 1.38846906e-06 6.14025248e-06 7.24021038e-06
      6.15752015e-06 3.40495444e-06 2.12474947e-06 3.11241865e-06
      4.15470049e-06 3.87238742e-06 -7.89183105e-07 -2.17750289e-06
      -3.10273685e-06 -5.01342947e-06 -1.00756233e-05 -9.63845196e-06
      -7.14459338e-06 2.15875161e-06 7.03931937e-06 7.13831923e-06
      4.93468860e-06 2.21208347e-06 8.93821209e-07 1.78172525e-06
      2.70851910e-06 3.52745110e-06 2.72340185e-06 3.91174217e-06
      5.22354776e-06 6.20173205e-06 6.34404887e-06 5.59221735e-06
      5.74735577e-06 7.33193247e-06 1.03469883e-05 1.29601658e-05
      1.11696290e-05 8.24122253e-06 6.18827880e-06 7.70127645e-06
      9.75512921e-06 1.04374058e-05 9.23093921e-06 7.52019105e-06
      8.43136968e-06 1.04105075e-05 1.11872741e-05 1.15884377e-05
      1.01980004e-05 7.06317905e-06 5.94972335e-06 6.53255074e-06
      6.18470267e-06 4.28266731e-06 2.93442417e-06 2.16214994e-06
      2.24162250e-06 3.96220184e-06 5.36791913e-06 6.46240142e-06
      4.82860514e-06 3.08414383e-06 2.20224229e-06 1.41855912e-06
      6.38658776e-07 -8.97827377e-08 -1.11716065e-06 -2.46029094e-06
      -2.11107658e-06 -8.74723241e-07 -8.19384070e-07 -1.11347867e-06
      2.99138947e-07 -8.77849516e-07 -2.22821973e-06 -2.86238287e-06
      -3.70189105e-06 -3.16360888e-06 -4.00982526e-06 -5.18399702e-06
      -6.11767973e-06 -5.14917883e-06 -4.13280168e-06 -3.71926740e-06
      -3.84888472e-06 -4.92011077e-06 -6.62534239e-06 -7.66255653e-06
      -6.81068059e-06 -7.03215164e-06 -8.01151145e-06 -8.48045147e-06
      -9.15862165e-06 -9.02058764e-06 -8.85119243e-06 -7.36804486e-06
      -5.77622586e-06 -4.17286765e-06 -3.22547385e-06 -2.34465210e-06
      -2.70368423e-06 -1.39356109e-06 -1.45235913e-06 -1.34547918e-06
      -2.30073783e-06 -2.85226497e-06 -3.13161058e-06 -2.41632029e-06
      -1.83721374e-06 -1.57048646e-06 -2.32751131e-06 -2.65097810e-06
      -3.06192260e-06 -3.48435992e-06 -3.73534135e-06 -4.05935361e-06
      -4.37273457e-06 -5.70862585e-06 -5.93196910e-06 -5.22065830e-06
      -5.02189914e-06 -4.72275588e-06 -4.97090332e-06 -4.81989127e-06
      -3.68974611e-07 -8.24564552e-07 -1.74002150e-06 -3.10206883e-06
      -4.46027980e-06 -4.83289432e-06 -4.30645287e-06 -4.19634671e-06
      -4.62089929e-06 -5.20219282e-06 -3.55162115e-06 2.24458063e-06
      3.43006991e-06 2.81647340e-06 -1.07230193e-07 -2.60551883e-06
      -4.80963445e-06 -4.75075285e-06 -5.33358434e-06 -6.80739959e-06
      -5.50590630e-06 -1.64832016e-07 3.85379462e-06 5.22081018e-06
      4.76817922e-06 2.47496769e-06 1.15446096e-06 1.70833823e-06
      3.31136221e-06 2.69127622e-06 -2.48528841e-06 -2.04754883e-06
      -1.28576130e-06 -1.58510579e-06 -3.45232456e-06 -7.16317936e-06
      -5.22236542e-06 3.37858319e-06 8.08199093e-06 7.75219814e-06
      4.96495750e-06 1.80198788e-06 -2.41352012e-07 -1.32871847e-07
      4.24068332e-07 -2.24787314e-07 3.95497409e-07 2.51359324e-06
      5.21680431e-06 6.01900319e-06 5.68332553e-06 4.92025993e-06
      4.34264985e-06 4.92634172e-06 6.63139917e-06 7.42307793e-06
      6.78162542e-06 5.51857602e-06 6.58408908e-06 8.78525316e-06
      1.15504436e-05 1.20825453e-05 1.00986590e-05 6.14775445e-06
      5.31819433e-06 5.23105427e-06 4.85678765e-06 5.87056593e-06
      5.72398676e-06 3.91089088e-06 2.45757064e-06 1.78911728e-06
      2.38591542e-06 2.21754749e-06 9.88849479e-07 -7.82650034e-07
      -1.01821558e-06 5.92840991e-07 2.04580533e-06 2.99959652e-06
      1.23609379e-06 -2.16898070e-06 -7.35630238e-06 -9.69397934e-06
      -1.03960047e-05 -1.08624263e-05 -1.11202990e-05 -1.17155487e-05
      -1.10698293e-05 -1.07081396e-05 -1.09693501e-05 -1.06924954e-05
      -8.34654202e-06 -8.01090846e-06 -7.90445392e-06 -8.42845930e-06
      -8.63890909e-06 -7.87670706e-06 -7.75459830e-06 -7.74095042e-06
      -7.36679613e-06 -5.96568952e-06 -4.82515225e-06 -4.12115060e-06
      -3.91847834e-06 -5.10799191e-06 -6.31010744e-06 -6.46271474e-06
      -5.97136250e-06 -6.39452128e-06 -8.27939766e-06 -9.80564164e-06
      -1.08235799e-05 -1.10086939e-05 -1.13701353e-05 -1.08330341e-05
      -9.38103130e-06 -8.26788437e-06 -6.94517576e-06 -6.20799710e-06
      -5.63421190e-06 -4.12883810e-06 -4.65821267e-06 -4.83294798e-06
      -5.86982833e-06 -6.48142486e-06 -6.69860265e-06 -6.11551195e-06
      -4.72337479e-06 -3.95534107e-06 -3.90806690e-06 -4.50108928e-06
      -5.09133315e-06 -6.08714936e-06 -6.82631753e-06 -7.85552402e-06
      -7.40362748e-06 -7.65831646e-06 -7.01446879e-06 -6.16760644e-06
      -5.36035168e-06 -4.34963295e-06 -4.63856395e-06 -4.95233553e-06
      -2.94832648e-06 -3.44896898e-06 -4.51651022e-06 -5.91036087e-06
      -7.22481172e-06 -7.48230377e-06 -7.25386099e-06 -7.07636809e-06
      -7.22412824e-06 -7.33614843e-06 -6.01173360e-06 -3.28711826e-06
      3.19832202e-06 3.10744872e-06 3.01797257e-07 -8.95721485e-07
      -7.97544374e-07 2.82506420e-07 -4.35844321e-08 -1.29973023e-06
      -1.38327118e-06 3.73534164e-07 2.77185131e-06 3.16190585e-06
      1.89228660e-06 1.76967106e-07 -6.22416280e-07 1.14264731e-06
      3.32451782e-06 4.23963365e-06 -4.08655097e-07 -1.98016255e-06
      -4.46671550e-07 -5.71234352e-07 -1.89517868e-06 -5.70997418e-06
      -3.78887603e-06 4.31868602e-06 8.39606673e-06 7.80876508e-06
      4.81026836e-06 1.50284347e-06 -1.57250582e-07 -1.32770055e-07
      -2.22515439e-07 -8.57244970e-07 3.21765327e-07 2.20866855e-06
      5.15742295e-06 5.98433508e-06 6.07147740e-06 5.23532481e-06
      4.27187115e-06 3.88978333e-06 4.93258403e-06 5.38608947e-06
      4.30083855e-06 1.74922650e-06 1.84261069e-06 3.91677986e-06
      7.14297175e-06 7.90349168e-06 5.88511830e-06 3.73477428e-06
      1.25997042e-06 8.86931559e-07 9.58986220e-07 2.01302191e-06
      1.18516789e-06 -1.20969685e-06 -2.46728905e-06 -3.53413520e-06
      -4.41649718e-06 -5.71230976e-06 -8.15925523e-06 -1.13825790e-05
      -1.23552954e-05 -1.09655402e-05 -8.78390438e-06 -7.97003122e-06
      -1.04204000e-05 -1.28551737e-05 -1.46957573e-05 -1.54898462e-05
      -1.59954143e-05 -1.59093579e-05 -1.58021594e-05 -1.58804869e-05
      -1.52932316e-05 -1.48739473e-05 -1.53328747e-05 -1.43186371e-05
      -1.19337774e-05 -1.13831820e-05 -1.12771977e-05 -1.20290961e-05
      -1.24896478e-05 -1.15080202e-05 -1.08543099e-05 -9.94319544e-06
      -9.29997896e-06 -8.09984431e-06 -6.87418287e-06 -5.88747025e-06
      -5.28798000e-06 -5.73370880e-06 -5.80347751e-06 -4.76218702e-06
      -3.02983631e-06 -4.45302385e-06 -6.80511448e-06 -8.51778259e-06
      -9.05948673e-06 -9.23804964e-06 -1.02898357e-05 -1.04104374e-05
      -9.88652027e-06 -9.83577502e-06 -9.80626828e-06 -9.24327742e-06
      -8.72100100e-06 -7.39929283e-06 -7.40397354e-06 -6.85441728e-06
      -7.67700840e-06 -8.22096627e-06 -8.28162774e-06 -7.90592276e-06
      -6.91385731e-06 -6.03422632e-06 -5.93624463e-06 -6.41611132e-06
      -7.12422434e-06 -8.17899490e-06 -9.19076774e-06 -9.69703342e-06
      -8.56644147e-06 -8.31985653e-06 -7.68380778e-06 -6.68919029e-06
      -5.54472354e-06 -4.78873744e-06 -5.36932930e-06 -5.73550551e-06
      -5.20162939e-06 -5.77423589e-06 -6.62707635e-06 -7.98146084e-06
      -9.39604979e-06 -9.67474625e-06 -9.76787669e-06 -9.27937253e-06
      -8.95741687e-06 -8.88358591e-06 -7.85117845e-06 -6.11552014e-06
      -3.30512694e-06 2.43187742e-06 1.34075754e-06 1.00363400e-06
      1.25880376e-06 2.24475616e-06 1.75811169e-06 8.43683665e-08
      -1.29368036e-08 4.80352355e-07 1.87614114e-06 1.50095525e-06
      -1.36821740e-07 -8.85743759e-07 -7.11877021e-07 7.82094162e-07
      3.17892341e-06 4.43621957e-06 3.74744928e-07 -4.51254982e-06
      -3.27080375e-06 -2.02074989e-06 -3.90959758e-06 -4.20974766e-06
      -8.31939190e-07 5.32088279e-06 7.62352738e-06 5.85828593e-06
      2.91504284e-06 7.27568647e-07 3.33920553e-07 5.91787682e-07
      1.12076964e-06 4.98531051e-07 -1.69418072e-07 1.16601871e-06
      3.17615309e-06 4.66184429e-06 4.63650804e-06 3.79914832e-06
      2.74930721e-06 2.04755111e-06 2.06485424e-06 9.81333415e-07
      4.95169957e-07 -1.05118852e-06 -6.56023701e-07 1.45639490e-06
      4.25519102e-06 4.01413990e-06 1.53740780e-06 -3.01479349e-06
      -8.51158893e-06 -9.74818249e-06 -9.55697578e-06 -9.02756074e-06
      -1.03520533e-05 -1.29601913e-05 -1.34736583e-05 -1.28308666e-05
      -1.20539671e-05 -1.13101087e-05 -1.33254616e-05 -1.69076993e-05
      -1.81333908e-05 -1.67706476e-05 -1.40468510e-05 -1.31892784e-05
      -1.51858521e-05 -1.67995713e-05 -1.73949938e-05 -1.75826190e-05
      -1.75952282e-05 -1.75757614e-05 -1.78479877e-05 -1.73546850e-05
      -1.65076017e-05 -1.62103352e-05 -1.60967738e-05 -1.47628534e-05
      -1.27611629e-05 -1.25331162e-05 -1.30785111e-05 -1.44078449e-05
      -1.53572946e-05 -1.47851024e-05 -1.40834654e-05 -1.29959353e-05
      -1.28403644e-05 -1.15153098e-05 -1.04414048e-05 -8.91818672e-06
      -8.39870245e-06 -8.39924633e-06 -7.36061520e-06 -5.27873499e-06
      -3.56279838e-06 -4.85897863e-06 -5.99773921e-06 -6.71437010e-06
      -6.67463291e-06 -6.23053666e-06 -6.72049464e-06 -7.39413554e-06
      -7.23893027e-06 -7.84330678e-06 -8.77061757e-06 -8.78570881e-06
      -8.52673929e-06 -7.58836313e-06 -7.52841243e-06 -7.07905929e-06
      -7.55353994e-06 -8.17051205e-06 -8.40027315e-06 -8.19513116e-06
      -7.60545254e-06 -7.66193716e-06 -7.45785974e-06 -8.02871728e-06
      -8.37299740e-06 -9.46327327e-06 -9.90767421e-06 -9.74760587e-06
      -8.65986658e-06 -8.02950581e-06 -7.24742449e-06 -5.88222929e-06
      -4.97794781e-06 -4.92244499e-06 -5.67872121e-06 -6.00632029e-06
      -6.11713313e-06 -6.47825391e-06 -7.22269579e-06 -8.65434413e-06
      -1.00301868e-05 -1.05252830e-05 -1.08188378e-05 -1.07836449e-05
      -1.00225634e-05 -9.99243730e-06 -9.88944703e-06 -9.43702162e-06
      -7.79458696e-06 -5.29013641e-06 4.10133850e-07 1.92355583e-06
      2.68846884e-06 3.02360672e-06 2.72313787e-06 1.39054134e-06
      1.27145211e-06 1.37663164e-06 1.54308623e-06 3.31362003e-07
      -1.31724983e-06 -2.15756927e-06 -1.06323193e-06 3.31371041e-07
      2.21613391e-06 3.82256303e-06 3.97846520e-07 -5.37088044e-06
      -6.73224667e-06 -6.31425610e-06 -5.39878602e-06 -6.13990949e-07
      3.40115548e-06 5.60672970e-06 6.02296404e-06 3.18270122e-06
      8.68260372e-07 -1.51195920e-07 6.45705143e-07 1.23267239e-06
      1.65250708e-06 1.10008796e-06 -5.39225596e-07 -1.09377936e-06
      -2.93012732e-07 1.00146906e-06 1.17355683e-06 2.04069394e-07
      -2.87539683e-06 -4.99924363e-06 -5.71735745e-06 -7.52406868e-06
      -8.92862499e-06 -1.12505777e-05 -1.10063220e-05 -9.43156829e-06
      -6.97671294e-06 -7.83633186e-06 -9.92559490e-06 -1.14231725e-05
      -1.44000778e-05 -1.50214382e-05 -1.44480455e-05 -1.41096598e-05
      -1.56995702e-05 -1.84919863e-05 -1.84031996e-05 -1.70644998e-05
      -1.60726559e-05 -1.43549451e-05 -1.54011232e-05 -1.84587007e-05
      -1.93843771e-05 -1.71249267e-05 -1.49784519e-05 -1.36740846e-05
      -1.51462536e-05 -1.57158247e-05 -1.53870915e-05 -1.52691209e-05
      -1.53493438e-05 -1.55475318e-05 -1.55412054e-05 -1.49694060e-05
      -1.41342007e-05 -1.35978144e-05 -1.29168120e-05 -1.14626055e-05
      -9.69532175e-06 -1.00098669e-05 -1.10937553e-05 -1.31762235e-05
      -1.49740135e-05 -1.53604851e-05 -1.50331125e-05 -1.43319376e-05
      -1.42874551e-05 -1.34387783e-05 -1.27987596e-05 -1.15006378e-05
      -1.09515795e-05 -1.05652016e-05 -9.59608860e-06 -8.02587419e-06
      -6.60499973e-06 -7.47881177e-06 -7.85763041e-06 -7.85587508e-06
      -7.23301446e-06 -6.01002785e-06 -5.35448544e-06 -5.43641454e-06
      -4.93901507e-06 -5.11355529e-06 -5.58767670e-06 -5.78554136e-06
      -5.54933831e-06 -4.35072889e-06 -4.13547514e-06 -4.23161464e-06
      -4.79534310e-06 -5.53596328e-06 -6.55910435e-06 -7.12745532e-06
      -8.11620885e-06 -8.48375112e-06 -8.92942080e-06 -9.28678037e-06
      -9.19761078e-06 -9.99023905e-06 -9.91138950e-06 -9.49238984e-06
      -7.68855261e-06 -7.20493881e-06 -5.89436240e-06 -5.00316855e-06
      -4.44869738e-06 -4.73974887e-06 -5.63309186e-06 -5.68586893e-06
      -6.06492995e-06 -6.53372126e-06 -7.38254357e-06 -8.65547190e-06
      -9.78056778e-06 -1.03296188e-05 -1.07520573e-05 -1.07356827e-05
      -1.04352521e-05 -1.03182929e-05 -1.09478005e-05 -1.18002927e-05
      -1.15912708e-05 -9.06118839e-06 -1.46336822e-06 1.60533568e-06
      2.64969731e-06 3.81576046e-06 3.72242630e-06 3.09386678e-06
      3.17861236e-06 3.02098761e-06 2.63750599e-06 9.06978244e-07
      -1.08186828e-06 -2.70034775e-06 -2.13317026e-06 -7.21199115e-07
      1.47230446e-06 3.33368439e-06 1.67965493e-06 -1.43469686e-06
      -4.33402874e-06 -5.38836366e-06 -3.31446813e-06 1.39087945e-06
      3.63256731e-06 4.38896313e-06 4.09320319e-06 9.65458867e-07
      -1.83662780e-06 -1.52859786e-06 -6.87841236e-07 1.39215089e-07
      -6.30597413e-07 -4.26265069e-06 -7.34688047e-06 -9.10151630e-06
      -9.22802883e-06 -8.62806246e-06 -8.21356025e-06 -8.59180273e-06
      -8.70230633e-06 -8.32712976e-06 -9.38044923e-06 -1.16382353e-05
      -1.33933136e-05 -1.57570084e-05 -1.61864082e-05 -1.48578483e-05
      -1.27845369e-05 -1.33021431e-05 -1.49132502e-05 -1.58070870e-05
      -1.66833615e-05 -1.56315982e-05 -1.46050934e-05 -1.42176705e-05
      -1.57382819e-05 -1.78867995e-05 -1.81596824e-05 -1.65598994e-05
      -1.48072577e-05 -1.30855515e-05 -1.31574579e-05 -1.52007478e-05
      -1.45445274e-05 -1.25444749e-05 -1.08769846e-05 -9.49997411e-06
      -1.06449243e-05 -1.12267953e-05 -1.10064984e-05 -1.11617519e-05
      -1.18713433e-05 -1.20304185e-05 -1.19630913e-05 -1.11351856e-05
      -9.79347351e-06 -8.78996161e-06 -7.94817606e-06 -6.93918491e-06
      -4.86703766e-06 -5.12724091e-06 -6.87922557e-06 -9.50690355e-06
      -1.13417846e-05 -1.18137086e-05 -1.18635817e-05 -1.16511555e-05
      -1.15080920e-05 -1.15128269e-05 -1.16390465e-05 -1.11710542e-05
      -1.07170517e-05 -1.06812440e-05 -1.10161500e-05 -1.05476156e-05
      -9.84177314e-06 -1.05870413e-05 -1.09639968e-05 -1.09589855e-05
      -9.95148184e-06 -9.14779594e-06 -7.37983555e-06 -6.16714033e-06
      -5.42841599e-06 -5.05034313e-06 -5.26270151e-06 -4.75246679e-06
      -3.64142807e-06 -1.47880485e-06 -8.97345728e-07 -1.15608418e-06
      -1.23263271e-06 -1.61424168e-06 -2.96644043e-06 -4.91398532e-06
      -6.84081715e-06 -7.75843910e-06 -8.64288813e-06 -9.07109825e-06
      -9.17625766e-06 -9.74300565e-06 -9.30217811e-06 -8.77801995e-06
      -6.81138999e-06 -6.01502734e-06 -5.39280336e-06 -4.92425397e-06
      -4.67812833e-06 -4.61702848e-06 -5.29277531e-06 -5.59015416e-06
      -5.93941377e-06 -6.45146702e-06 -7.46972137e-06 -8.98059989e-06
      -1.01760534e-05 -1.07923915e-05 -1.13877668e-05 -1.10703932e-05
      -1.05766285e-05 -1.03622724e-05 -1.07330143e-05 -1.20252671e-05
      -1.28251459e-05 -1.10906540e-05 -3.78539266e-06 9.31808927e-07
      2.29387206e-06 4.15034128e-06 4.60234651e-06 4.21514505e-06
      4.23049460e-06 4.00136923e-06 3.56583791e-06 1.91071490e-06
      -5.94037658e-07 -2.44644366e-06 -2.75976981e-06 -1.85006377e-06
      6.28495457e-07 2.88674210e-06 1.58060175e-06 -6.36189441e-07
      -2.52972745e-06 -3.63303184e-06 -3.47089872e-06 -5.84640816e-07
      1.00303168e-06 1.11650979e-06 9.08564530e-08 -5.09585971e-06
      -8.27156509e-06 -8.82655695e-06 -7.91331695e-06 -7.56585905e-06
      -7.22496907e-06 -8.94612094e-06 -1.09104130e-05 -1.23617847e-05
      -1.26775658e-05 -1.26179157e-05 -1.21920521e-05 -1.17613727e-05
      -1.11441477e-05 -1.09022076e-05 -1.22678084e-05 -1.42554791e-05
      -1.54827376e-05 -1.72893688e-05 -1.74428624e-05 -1.62915221e-05
      -1.38809228e-05 -1.37318038e-05 -1.38525465e-05 -1.34452994e-05
      -1.25606957e-05 -1.07615833e-05 -9.60163288e-06 -9.45928878e-06
      -1.14295963e-05 -1.38450359e-05 -1.49136804e-05 -1.36130348e-05
      -1.16752999e-05 -9.36937522e-06 -8.85611371e-06 -9.23255448e-06
      -8.29105011e-06 -6.57512237e-06 -5.07772893e-06 -4.78663924e-06
      -6.08478649e-06 -7.00262353e-06 -7.40926544e-06 -7.47403374e-06
      -8.07489323e-06 -8.52314861e-06 -8.60656837e-06 -7.24494066e-06
      -5.32375179e-06 -4.54926612e-06 -3.85894509e-06 -2.49287564e-06
      -4.74670372e-07 -9.48207230e-07 -2.88366891e-06 -5.17731542e-06
      -7.21011611e-06 -7.80323444e-06 -7.53357381e-06 -7.17268586e-06
      -6.12727263e-06 -6.04633169e-06 -6.75701904e-06 -7.02473199e-06
      -7.17151124e-06 -7.69552116e-06 -8.32432943e-06 -8.98743838e-06
      -9.88765805e-06 -1.13595070e-05 -1.22486554e-05 -1.31087090e-05
      -1.31177912e-05 -1.18501212e-05 -9.74537943e-06 -8.82082259e-06
      -7.86410692e-06 -7.08553080e-06 -6.38796837e-06 -5.32983950e-06
      -4.00521412e-06 -1.77653010e-06 -9.29236705e-07 -2.92261745e-07
      -1.67133365e-07 -4.64218147e-07 -1.69553493e-06 -3.78787968e-06
      -5.62707692e-06 -6.67847462e-06 -8.38673350e-06 -9.00860778e-06
      -9.39282563e-06 -9.07938556e-06 -8.09387257e-06 -7.20207299e-06
      -5.70035081e-06 -5.28014516e-06 -5.05221169e-06 -4.50091920e-06
      -4.05691844e-06 -4.29847478e-06 -5.18182969e-06 -5.48987282e-06
      -5.22888513e-06 -5.85362795e-06 -6.65910147e-06 -7.97931170e-06
      -9.54363895e-06 -1.00140842e-05 -1.05504914e-05 -1.05086738e-05
      -1.02549766e-05 -9.70457313e-06 -9.62710783e-06 -1.05379086e-05
      -1.14995282e-05 -1.01924416e-05 -2.37105019e-06 1.57067961e-06
      8.21218782e-06 9.60506986e-06 9.53677863e-06 1.01362302e-05
      1.00096195e-05 6.25830899e-06 4.38419738e-06 3.15555121e-06
      1.08089193e-06 -1.47319133e-06 -2.50553353e-06 -2.96428834e-06
      -2.03462932e-07 2.35663447e-06 9.84434450e-07 -1.51394659e-06
      -4.02693558e-06 -7.56284908e-06 -8.57907435e-06 -6.87917100e-06
      -6.71540283e-06 -6.99024440e-06 -7.44284080e-06 -8.70913664e-06
      -1.03946650e-05 -1.10876836e-05 -1.08819768e-05 -1.08393488e-05
      -1.06534544e-05 -1.20089881e-05 -1.29770769e-05 -1.34556894e-05
      -1.35077471e-05 -1.35116434e-05 -1.34487982e-05 -1.33043295e-05
      -1.25220249e-05 -1.18925018e-05 -1.30843009e-05 -1.43406578e-05
      -1.48696699e-05 -1.55759117e-05 -1.50577353e-05 -1.35742084e-05
      -1.09843850e-05 -1.03422617e-05 -9.40406335e-06 -8.02801878e-06
      -6.61391869e-06 -5.36637390e-06 -4.79590562e-06 -5.21372385e-06
      -6.30824161e-06 -7.31256887e-06 -8.48994296e-06 -7.99572535e-06
      -6.72339411e-06 -5.15340389e-06 -4.07411790e-06 -3.58996044e-06
      -1.70666431e-06 3.58455054e-07 1.34046934e-06 1.21352366e-06
      9.85815607e-09 -1.19014362e-06 -1.53454982e-06 -2.45414344e-06
      -4.32447951e-06 -5.19329524e-06 -4.86355611e-06 -2.43100089e-06
      -1.00444197e-06 -5.55392717e-07 -5.37635344e-07 9.70454153e-07
      2.81558027e-06 2.96905364e-06 1.27959800e-06 -1.45126387e-06
      -3.60181184e-06 -4.39552377e-06 -4.02934074e-06 -3.25824431e-06
      -1.54398185e-06 -1.15279647e-06 -1.54544705e-06 -2.83034387e-06
      -3.74296587e-06 -4.58893510e-06 -5.30075113e-06 -5.80091182e-06
      -7.24281017e-06 -9.30693659e-06 -1.10853462e-05 -1.27983967e-05
      -1.39353924e-05 -1.33035383e-05 -1.25206980e-05 -1.24819144e-05
      -1.22714682e-05 -1.22005704e-05 -1.20038540e-05 -1.06925027e-05
      -9.12281575e-06 -6.96982443e-06 -5.95034226e-06 -5.12504857e-06
      -4.49338086e-06 -3.52673374e-06 -3.46678735e-06 -4.50097559e-06
      -5.55729457e-06 -7.00829924e-06 -8.02673821e-06 -8.43291855e-06
      -9.14274278e-06 -9.00996201e-06 -8.44997703e-06 -7.52347660e-06
      -6.47949264e-06 -6.01115198e-06 -6.15563613e-06 -5.84780310e-06
      -5.23471317e-06 -5.30022726e-06 -6.40279086e-06 -6.56727980e-06
      -2.33365176e-06 -2.89754189e-06 -3.60687227e-06 -4.10815028e-06
      -5.36183052e-06 -6.32736283e-06 -7.15876786e-06 -7.30331067e-06
      -7.19586342e-06 -6.97605310e-06 -6.86290423e-06 -7.24186657e-06
      -8.16646025e-06 -7.19736181e-06 8.60788703e-07 5.89590672e-06
      1.00306688e-05 1.10406982e-05 5.51714493e-06 5.30184207e-06
      6.63949095e-06 4.19410253e-06 3.92547145e-06 2.91453421e-06
      6.50261711e-07 -1.69954080e-06 -3.29567956e-06 -6.06367757e-06
      -5.78144227e-06 -3.89624392e-06 -5.83233486e-06 -9.09483697e-06
      -1.06830903e-05 -1.18119533e-05 -1.18945281e-05 -1.08870490e-05
      -1.09538660e-05 -1.13802171e-05 -1.20282721e-05 -1.30998669e-05
      -1.43305397e-05 -1.46680413e-05 -1.45564445e-05 -1.42667077e-05
      -1.39180274e-05 -1.50940168e-05 -1.54281388e-05 -1.53102064e-05
      -1.47235141e-05 -1.41305009e-05 -1.34107513e-05 -1.26962086e-05
      -1.20996228e-05 -1.20684499e-05 -1.32553514e-05 -1.43322513e-05
      -1.44862888e-05 -1.40507073e-05 -1.25118895e-05 -9.79643937e-06
      -7.26552025e-06 -6.24221593e-06 -5.34904211e-06 -4.17357478e-06
      -3.28689543e-06 -2.59661579e-06 -2.87322837e-06 -3.46388629e-06
      -4.29380088e-06 -3.98297652e-06 -3.75666195e-06 -3.36466110e-06
      -2.50918197e-06 -8.26377402e-07 -2.53404210e-07 4.60192865e-07
      9.81341373e-07 1.13057661e-06 1.49956543e-06 1.50459618e-06
      5.06995605e-07 -9.93892513e-07 -2.66871211e-06 -4.48925948e-06
      -6.20160517e-06 -6.89278522e-06 -6.05992773e-06 -4.01220723e-06
      -4.13032831e-06 -3.97392705e-06 -3.83140878e-06 -2.29695138e-06
      -8.22148309e-07 -7.25718962e-07 -1.04267315e-06 -2.92312484e-06
      -4.67502559e-06 -4.71001294e-06 -3.70342445e-06 -2.20000084e-06
      -6.32170838e-07 4.08988740e-07 6.21278673e-07 -9.47630781e-07
      -1.90816604e-06 -2.56951103e-06 -3.09132793e-06 -3.46877277e-06
      -4.35547599e-06 -5.89215324e-06 -7.58414217e-06 -9.25017048e-06
      -1.03623961e-05 -1.07712531e-05 -1.05751178e-05 -1.10189139e-05
      -1.15461917e-05 -1.23978571e-05 -1.27304074e-05 -1.23422351e-05
      -1.16115370e-05 -1.01022661e-05 -8.90520369e-06 -7.86834607e-06
      -7.67106394e-06 -7.11489974e-06 -6.60307796e-06 -6.12492568e-06
      -6.50155562e-06 -6.69769042e-06 -6.99122847e-06 -7.05651473e-06
      -7.25284508e-06 -6.83253120e-06 -6.65995958e-06 -5.74164733e-06
      -5.51877974e-06 -5.36314974e-06 -5.79768312e-06 -5.30464331e-06
      -4.71420481e-06 -4.77292997e-06 -5.83687552e-06 -5.99177429e-06
      1.14601380e-06 6.39911946e-07 1.85995134e-07 5.73494106e-08
      -2.37338128e-07 -8.48156503e-07 -1.75131788e-06 -2.23228653e-06
      -2.30259275e-06 -2.34357753e-06 -2.14465899e-06 -2.66923894e-06
      -4.02023443e-06 -3.52872621e-06 3.84568011e-06 7.19631453e-06
      1.23405935e-05 6.81292477e-06 5.37462211e-06 4.29207648e-06
      3.85284329e-06 3.21817038e-06 1.70506189e-06 4.89314402e-07
      -2.01419039e-06 -4.56936414e-06 -9.24801043e-06 -1.07321657e-05
      -9.92204605e-06 -8.65592119e-06 -1.05533500e-05 -1.34463198e-05
      -1.52418252e-05 -1.58807779e-05 -1.55413454e-05 -1.44273108e-05
      -1.47794135e-05 -1.50227143e-05 -1.51371760e-05 -1.57063914e-05
      -1.65841084e-05 -1.64848334e-05 -1.57431987e-05 -1.48311119e-05
      -1.39197236e-05 -1.39526346e-05 -1.44983424e-05 -1.46295897e-05
      -1.40965476e-05 -1.32287114e-05 -1.23732989e-05 -1.16940018e-05
      -1.11527106e-05 -1.05154049e-05 -1.13286214e-05 -1.26244513e-05
      -1.27686144e-05 -1.19988954e-05 -9.44096155e-06 -6.11107498e-06
      -2.24365567e-06 9.83890800e-08 8.27768929e-07 1.28448710e-06
      7.33683805e-07 5.97590940e-07 -8.50613503e-07 -2.43694512e-06
      -4.09607219e-06 -3.69048780e-06 -2.88166279e-06 -1.79698861e-06
      -7.67565666e-07 5.18824152e-07 7.16104921e-07 4.68660403e-07
      3.72093808e-07 -2.70211700e-07 -4.31050395e-08 7.60118780e-07
      -1.81935548e-07 -6.36232016e-07 -2.89054151e-06 -4.66675556e-06
      -5.96095924e-06 -6.19796810e-06 -5.49822471e-06 -4.36348682e-06
      -4.54843803e-06 -4.01943635e-06 -2.73100750e-06 -1.27456724e-06
      -2.60961968e-07 3.82225920e-07 1.76187296e-08 -1.80292830e-06
      -3.76133289e-06 -4.24532618e-06 -3.25798419e-06 -9.96379526e-07
      1.02332228e-06 3.31295405e-06 3.81798418e-06 2.40428017e-06
      1.16698936e-06 2.53154781e-07 1.62257223e-07 -7.92776049e-08
      -3.48816030e-07 -7.42661996e-07 -1.71266367e-06 -3.17337071e-06
      -4.51742608e-06 -5.58158581e-06 -5.99979694e-06 -6.95235349e-06
      -7.46612523e-06 -8.06856315e-06 -8.65128004e-06 -9.05120669e-06
      -8.81151573e-06 -8.18162516e-06 -7.99391182e-06 -7.76019442e-06
      -8.17828732e-06 -8.35071933e-06 -8.02934483e-06 -7.04314425e-06
      -6.18851573e-06 -4.85549663e-06 -4.54152269e-06 -4.33542800e-06
      -4.68581675e-06 -4.48151877e-06 -4.05020091e-06 -3.89226670e-06
      -4.19787284e-06 -4.08705682e-06 -4.55022337e-06 -4.56302223e-06
      -3.71173292e-06 -3.23493396e-06 -4.17580623e-06 -4.33326613e-06
      9.59608133e-06 9.17390116e-06 8.96836809e-06 8.95765061e-06
      8.76927606e-06 8.50700417e-06 7.71304531e-06 7.08760399e-06
      6.82351629e-06 6.42485202e-06 5.12544557e-06 2.65989911e-06
      2.25435798e-07 -7.59801310e-07 4.81585948e-06 7.98767451e-06
      8.62125489e-06 7.60073590e-06 4.93135030e-06 3.62861397e-06
      4.26868837e-06 3.17762306e-06 2.62478494e-07 -3.31481419e-06
      -6.35187962e-06 -8.81171854e-06 -1.02494714e-05 -1.07361457e-05
      -1.05266326e-05 -1.01766982e-05 -1.11578547e-05 -1.33464264e-05
      -1.45412241e-05 -1.50767601e-05 -1.42637991e-05 -1.42027520e-05
      -1.46030743e-05 -1.44695796e-05 -1.34495440e-05 -1.29814107e-05
      -1.34965530e-05 -1.34912243e-05 -1.25336846e-05 -1.18150374e-05
      -1.08551749e-05 -1.09012353e-05 -1.12784301e-05 -1.15954090e-05
      -1.15735884e-05 -1.07882688e-05 -9.99216809e-06 -9.27639303e-06
      -8.51643745e-06 -7.67485380e-06 -7.84533040e-06 -9.01364456e-06
      -9.57313659e-06 -7.98501605e-06 -5.47349828e-06 -1.83339353e-06
      7.69226403e-07 2.27066153e-06 2.47170692e-06 2.25307008e-06
      1.65745769e-06 4.76119766e-07 -9.13047984e-07 -2.37817903e-06
      -2.94370852e-06 -2.98586201e-06 -2.50231824e-06 -1.18650485e-06
      6.11215611e-08 4.54607317e-07 7.25535870e-07 5.98373674e-07
      2.11785320e-07 -7.44634065e-07 -6.54112000e-07 3.96864465e-07
      5.18319837e-07 5.41951124e-07 -2.96071022e-07 -1.38372218e-06
      -2.30369346e-06 -2.74625904e-06 -3.28844703e-06 -3.67103326e-06
      -3.79485709e-06 -2.16786771e-06 -6.41296367e-07 1.48496940e-06
      1.51504332e-06 2.23332199e-06 2.38923235e-06 1.05307288e-06
      -6.79606273e-07 -1.97742747e-06 -1.89468426e-06 -7.00049725e-07
      4.33164871e-07 2.03910304e-06 2.76287051e-06 2.15023306e-06
      1.79489257e-06 2.48511765e-06 2.68200756e-06 3.55911720e-06
      4.92737672e-06 5.77487845e-06 5.96232076e-06 4.31507397e-06
      2.17789329e-06 6.49652691e-07 -8.59649049e-07 -1.00779596e-06
      -6.24873962e-07 -1.17197953e-06 -2.13164685e-06 -2.76061769e-06
      -3.09121015e-06 -3.29979912e-06 -3.00085389e-06 -3.69001896e-06
      -4.49200706e-06 -5.48599701e-06 -6.42347868e-06 -6.45938007e-06
      -5.82368966e-06 -4.97856763e-06 -4.60057299e-06 -4.53065240e-06
      -4.26309089e-06 -3.78615005e-06 -3.47297532e-06 -2.80503468e-06
      -2.99920475e-06 -2.99510657e-06 -3.28549345e-06 -2.68909389e-06
      -2.05949186e-06 -1.56788747e-06 -2.20938682e-06 -2.20754737e-06
      1.49811185e-05 1.44981459e-05 1.41687206e-05 1.40794136e-05
      1.39125914e-05 1.35980044e-05 1.28881966e-05 1.24229318e-05
      1.22190277e-05 1.19573815e-05 1.19036122e-05 1.05162844e-05
      4.47488401e-06 7.17711885e-07 1.74526701e-06 5.88490093e-06
      7.11267558e-06 6.90789238e-06 1.59499734e-06 5.35277024e-07
      2.21678704e-07 -5.70449060e-07 -1.66552365e-06 -3.12785073e-06
      -5.62882860e-06 -8.08150344e-06 -9.47964782e-06 -1.03272196e-05
      -1.03374923e-05 -1.05625695e-05 -1.10427327e-05 -1.17060199e-05
      -1.22715383e-05 -1.16673464e-05 -1.11144200e-05 -1.11111194e-05
      -1.14105960e-05 -1.08214808e-05 -1.00561901e-05 -9.09207756e-06
      -8.59639022e-06 -8.07613469e-06 -7.70877068e-06 -7.35630283e-06
      -7.88364832e-06 -8.00466023e-06 -8.58608837e-06 -8.91453055e-06
      -8.65613038e-06 -7.92977062e-06 -7.08799280e-06 -6.65354173e-06
      -6.13617931e-06 -5.17412764e-06 -4.83285021e-06 -5.49629203e-06
      -5.92930382e-06 -4.64995719e-06 -2.64945834e-06 -9.45604256e-07
      -4.72904816e-07 8.46501678e-07 2.04991579e-06 2.14853389e-06
      1.48326319e-06 -5.44593242e-08 -1.15451564e-06 -9.55725568e-07
      -6.09739061e-07 -3.27997725e-07 -2.81111880e-07 4.87912530e-07
      6.64772358e-07 5.69846065e-07 7.82074096e-07 1.72040882e-06
      1.36285485e-06 3.08218944e-07 -7.17298576e-07 -8.15408470e-08
      1.05446577e-06 1.94739459e-06 2.13209637e-06 1.40067823e-06
      7.16432680e-07 2.35525036e-07 -4.77582489e-07 -1.34168909e-06
      -1.14532838e-06 2.37445903e-07 2.42368969e-06 4.42504233e-06
      5.34175933e-06 6.06227422e-06 5.32466538e-06 3.79890298e-06
      1.85468775e-06 1.26715781e-06 3.82092338e-07 9.44685667e-07
      1.42101339e-06 2.32368393e-06 2.25384838e-06 1.46894843e-06
      9.31713942e-07 1.38364192e-06 2.47321100e-06 4.69377528e-06
      5.77350784e-06 5.73987018e-06 5.59869568e-06 4.63060269e-06
      3.80864890e-06 2.88835099e-06 2.35972220e-06 2.36832557e-06
      2.96193571e-06 3.04058176e-06 2.13368867e-06 1.56424585e-06
      1.24343933e-06 1.05962397e-06 5.84607449e-07 4.78936215e-07
      -5.10063387e-07 -1.29044201e-06 -2.46685045e-06 -3.56615215e-06
      -4.45763999e-06 -4.57190481e-06 -4.41721477e-06 -4.94228061e-06
      -4.76049399e-06 -4.44973421e-06 -4.01398256e-06 -3.61584966e-06
      -3.22818414e-06 -3.10298424e-06 -3.12668431e-06 -2.58661271e-06
      -1.33476067e-06 -1.12173450e-06 -1.60711420e-06 -1.48129050e-06
      1.47543542e-05 1.42866165e-05 1.38841624e-05 1.35787241e-05
      1.33213925e-05 1.31484139e-05 1.25852803e-05 1.19512088e-05
      1.17919890e-05 1.18343487e-05 1.15199709e-05 1.02436916e-05
      7.45263469e-06 1.53393000e-06 -7.49782373e-07 9.35081275e-08
      8.72512544e-07 -2.72369931e-07 -8.55094527e-07 -1.09294911e-06
      -1.65150777e-06 -2.58352520e-06 -3.74574051e-06 -5.65645814e-06
      -7.54066605e-06 -9.56886197e-06 -1.05552108e-05 -1.13649003e-05
      -1.12272664e-05 -1.08300264e-05 -1.09095408e-05 -1.10169703e-05
      -1.04605533e-05 -9.79531978e-06 -9.14375960e-06 -8.84615201e-06
      -8.60664295e-06 -7.68537211e-06 -6.70821601e-06 -5.87785507e-06
      -5.33004641e-06 -4.71438580e-06 -4.04972707e-06 -4.18113723e-06
      -4.75715751e-06 -5.53195559e-06 -6.29958959e-06 -6.36098866e-06
      -5.73475791e-06 -4.81490997e-06 -4.01486523e-06 -3.34713900e-06
      -2.98955979e-06 -1.95404164e-06 -1.16917033e-06 -5.47695947e-07
      -4.60799825e-08 4.25769741e-07 8.42576981e-07 7.49399192e-07
      5.22443997e-07 2.10084454e-06 3.32647187e-06 3.35808591e-06
      2.37053609e-06 3.29043417e-07 -7.70348663e-07 -2.74970347e-07
      8.22893114e-08 1.41610803e-06 1.94867675e-06 1.56068927e-06
      3.10896297e-07 5.52273207e-07 1.28147167e-06 2.02134788e-06
      1.84596342e-06 1.02475258e-06 -5.94052835e-07 -1.02489068e-07
      1.36357335e-06 2.98034433e-06 3.76003436e-06 3.25182418e-06
      2.58369687e-06 1.58210003e-06 4.84785460e-07 2.83884674e-07
      8.93840081e-07 2.27715555e-06 3.65180040e-06 4.85331384e-06
      5.85098906e-06 6.16484795e-06 4.72937245e-06 3.80520783e-06
      2.75485718e-06 2.72444299e-06 2.54605175e-06 2.45115120e-06
      3.34478682e-06 3.93539131e-06 3.57938143e-06 2.71687577e-06
      1.63756931e-06 1.35699895e-06 2.31262106e-06 3.91631920e-06
      4.69360475e-06 4.42320697e-06 3.76362232e-06 2.84929433e-06
      1.40712984e-06 3.98335544e-07 -1.88271670e-07 1.03496984e-06
      2.75229718e-06 4.56083626e-06 4.10554685e-06 3.69239865e-06
      3.10660107e-06 2.77338290e-06 2.39397423e-06 2.37884069e-06
      2.27450414e-06 2.07797325e-06 1.06032769e-06 -1.16442106e-06
      -2.83970053e-06 -3.61808452e-06 -4.35356287e-06 -4.44062698e-06
      -4.47181537e-06 -4.31079252e-06 -4.27002988e-06 -4.03548938e-06
      -4.03272497e-06 -3.61953607e-06 -3.01402520e-06 -2.00025534e-06
      -1.41406065e-06 -1.13475323e-06 -1.36945130e-06 -1.41021314e-06
      1.21600524e-05 1.18128064e-05 1.12075113e-05 1.09123657e-05
      1.07866781e-05 1.08467821e-05 1.05449317e-05 9.98214819e-06
      9.98033374e-06 9.83423251e-06 9.85651695e-06 8.37260177e-06
      5.31875912e-06 1.50823325e-06 -1.31743286e-06 -2.78455536e-06
      -3.90765354e-06 -4.29211877e-06 -5.21371521e-06 -6.18155900e-06
      -6.75082447e-06 -7.16149407e-06 -7.67497932e-06 -8.62509478e-06
      -1.00420566e-05 -1.12896214e-05 -1.18430708e-05 -1.16370884e-05
      -1.08216091e-05 -1.03206803e-05 -1.04897135e-05 -1.06945408e-05
      -1.04277142e-05 -9.61416026e-06 -9.04792341e-06 -8.53956954e-06
      -8.39326913e-06 -8.22515631e-06 -7.70069255e-06 -7.09587994e-06
      -6.63404489e-06 -5.77776245e-06 -5.23389326e-06 -4.86720683e-06
      -4.85351256e-06 -5.41034569e-06 -5.56591976e-06 -5.24516781e-06
      -4.54563860e-06 -3.37892880e-06 -2.22420476e-06 -1.66819359e-06
      -7.26102698e-08 9.80111167e-07 1.54965801e-06 1.39495398e-06
      1.47727599e-06 1.55825148e-06 1.31653064e-06 1.56972180e-06
      2.13788371e-06 2.65289100e-06 3.40673091e-06 3.45025137e-06
      2.90642583e-06 1.03988714e-06 2.36939584e-07 7.51113134e-07
      1.47532342e-06 3.04750961e-06 3.26707482e-06 2.98026816e-06
      1.93856135e-06 1.91508320e-06 2.35101652e-06 2.93617722e-06
      2.57799775e-06 2.06821119e-06 1.20343122e-06 1.18085234e-06
      3.01194882e-06 4.82548694e-06 5.24485222e-06 4.98166128e-06
      4.29084548e-06 3.94522704e-06 3.33152752e-06 3.20152594e-06
      3.03183629e-06 3.19051856e-06 3.95750794e-06 4.26006636e-06
      5.77830997e-06 5.79883772e-06 5.05163462e-06 3.27180805e-06
      2.60895763e-06 3.30309990e-06 4.34770118e-06 4.87607895e-06
      4.82311361e-06 5.71285591e-06 5.35340541e-06 4.65510402e-06
      3.51575250e-06 2.99999533e-06 3.63162326e-06 4.90922230e-06
      5.00774013e-06 4.37480867e-06 3.42438443e-06 3.02700823e-06
      2.22210178e-06 1.57520492e-06 1.40551299e-06 1.66052769e-06
      3.00820670e-06 4.61440413e-06 4.99862153e-06 4.85145438e-06
      4.29493275e-06 4.35797574e-06 3.86793954e-06 4.10132407e-06
      5.42564612e-06 5.71821556e-06 3.75616173e-06 1.18270668e-06
      -1.43829436e-06 -2.94684878e-06 -3.20546042e-06 -3.10423275e-06
      -3.44081309e-06 -3.29846307e-06 -3.21004495e-06 -3.83326005e-06
      -4.11283645e-06 -3.47273703e-06 -2.16501780e-06 -1.39751000e-06
      -8.74241209e-07 -8.26630242e-07 -9.89085038e-07 -1.07195240e-06
      5.58920647e-06 5.23129120e-06 4.80659719e-06 4.72680267e-06
      4.69722499e-06 5.18481147e-06 4.88686283e-06 4.42355031e-06
      4.14911619e-06 3.80193296e-06 3.81147265e-06 3.28246301e-06
      2.31536774e-06 1.70506269e-07 -2.33929336e-06 -4.94185542e-06
      -6.80716948e-06 -7.48310504e-06 -8.59345528e-06 -9.43267696e-06
      -9.66465450e-06 -9.55094583e-06 -9.52472965e-06 -9.63922321e-06
      -9.97653387e-06 -1.01890564e-05 -1.01707974e-05 -9.94397669e-06
      -8.91034506e-06 -8.27532585e-06 -8.23848222e-06 -8.38744108e-06
      -8.39327367e-06 -8.50535889e-06 -7.74928503e-06 -7.42446855e-06
      -7.61791216e-06 -7.82581901e-06 -7.81430663e-06 -7.10245877e-06
      -6.57445389e-06 -6.08297114e-06 -5.04637637e-06 -4.12947566e-06
      -3.37780739e-06 -3.27252269e-06 -3.21862376e-06 -2.50100607e-06
      -7.31863565e-07 6.98114491e-07 9.21937101e-07 1.86141165e-06
      2.54691258e-06 2.15722025e-06 1.46880086e-06 1.23977861e-06
      1.93192022e-06 2.02280489e-06 1.82343570e-06 2.39323367e-06
      2.76979722e-06 3.55930888e-06 4.30810087e-06 3.77641300e-06
      3.45445869e-06 2.04565367e-06 1.23288669e-06 1.48165952e-06
      2.47019739e-06 4.13109046e-06 4.72569127e-06 4.14214401e-06
      3.35396521e-06 3.30084140e-06 3.51813446e-06 3.86034935e-06
      3.83717406e-06 3.74289152e-06 3.88994431e-06 4.04315460e-06
      4.87503166e-06 5.98883889e-06 6.37689072e-06 6.59689522e-06
      6.40987264e-06 5.85809357e-06 5.38151835e-06 5.01237810e-06
      5.21865877e-06 4.89879949e-06 5.08274024e-06 5.07860432e-06
      5.32045442e-06 5.11089911e-06 4.44162561e-06 3.14111298e-06
      3.60075114e-06 4.20149036e-06 5.14299882e-06 5.74328942e-06
      6.88878890e-06 6.94462051e-06 7.39833922e-06 6.86262774e-06
      6.29863052e-06 5.71897226e-06 5.79314519e-06 6.19298635e-06
      5.99815985e-06 5.40868405e-06 5.45281273e-06 4.23857091e-06
      4.20167362e-06 3.60295758e-06 3.93647224e-06 4.91930541e-06
      5.28364171e-06 5.67193547e-06 5.48895559e-06 5.38793256e-06
      4.64631285e-06 4.27048826e-06 4.60070123e-06 4.85748660e-06
      5.52469055e-06 5.52446681e-06 4.38161715e-06 2.13610292e-06
      -8.28837514e-08 -1.57952911e-06 -2.27894998e-06 -2.81590974e-06
      -3.00396778e-06 -3.02330773e-06 -3.40200063e-06 -3.61738398e-06
      -3.31192905e-06 -2.34958429e-06 -1.36370727e-06 -1.97569989e-07
      -8.01328994e-08 -4.16887360e-08 -3.65103290e-07 -2.80519600e-07
      3.61121215e-06 3.35002869e-06 3.07854816e-06 2.86592717e-06
      2.75637649e-06 2.83268469e-06 2.90308640e-06 2.75679554e-06
      2.39540100e-06 2.52499353e-06 1.77770244e-06 7.20464186e-07
      -5.82801249e-07 -2.56598946e-06 -4.36368191e-06 -6.13879456e-06
      -7.63246589e-06 -8.91474156e-06 -1.02511412e-05 -1.04941328e-05
      -9.35669232e-06 -8.13667066e-06 -7.41052054e-06 -7.57402313e-06
      -7.95683900e-06 -7.94193511e-06 -7.60257262e-06 -7.10076893e-06
      -6.41219776e-06 -6.34284015e-06 -7.17283046e-06 -7.43352166e-06
      -7.37078153e-06 -7.11163875e-06 -6.29016722e-06 -6.10743746e-06
      -6.02277578e-06 -6.80759422e-06 -6.66575124e-06 -6.06423600e-06
      -4.72024431e-06 -3.23267545e-06 -1.91713661e-06 -7.02207672e-07
      9.04189847e-07 2.66901748e-06 3.60027752e-06 4.18409218e-06
      4.41559132e-06 4.23368738e-06 4.31641638e-06 3.99946430e-06
      3.93978917e-06 3.09757570e-06 2.65622316e-06 2.99897124e-06
      3.95399093e-06 4.49026629e-06 4.59797093e-06 3.99540659e-06
      3.64546963e-06 5.27503516e-06 5.64956690e-06 5.41808231e-06
      4.19003254e-06 2.00670115e-06 1.47343758e-06 1.59871411e-06
      3.98682869e-06 5.04219224e-06 5.34176388e-06 5.10889140e-06
      4.86667295e-06 4.60198999e-06 4.86377394e-06 5.56075975e-06
      6.16942998e-06 6.28262251e-06 6.13372094e-06 6.19324555e-06
      6.71270391e-06 7.54134680e-06 8.38803953e-06 8.72869896e-06
      8.30148019e-06 7.81525068e-06 7.50386425e-06 7.34359583e-06
      7.33346224e-06 7.28906616e-06 6.81876463e-06 6.08031678e-06
      5.83307838e-06 5.15699639e-06 5.00074793e-06 4.25661938e-06
      4.35388074e-06 4.95561653e-06 5.48087655e-06 6.38535948e-06
      7.02484476e-06 7.08450762e-06 6.94952814e-06 6.44992951e-06
      6.60812702e-06 6.59105490e-06 6.21275694e-06 5.78756499e-06
      5.39639768e-06 5.43471879e-06 5.32285503e-06 5.32588501e-06
      5.36546850e-06 5.75880540e-06 5.55150245e-06 6.01165630e-06
      6.11998985e-06 6.54301266e-06 6.40629560e-06 5.75218110e-06
      5.02362445e-06 4.45494061e-06 4.18621812e-06 4.48335550e-06
      5.16586442e-06 5.66132576e-06 5.08142057e-06 3.44180694e-06
      6.68604343e-07 -1.59366857e-06 -2.44895182e-06 -2.25961230e-06
      -2.28195245e-06 -2.36525602e-06 -2.81986104e-06 -2.79154733e-06
      -2.06523055e-06 -9.01178680e-07 -2.49303127e-07 3.56561969e-07
      -3.53728815e-08 -2.18199048e-07 1.89304039e-08 9.96104887e-08
      1.31621266e-06 1.20631739e-06 1.01191438e-06 8.21113986e-07
      7.64802735e-07 6.93486356e-07 4.60594947e-07 4.54839082e-08
      1.56514943e-07 -4.14543763e-07 -1.25803388e-06 -2.37060385e-06
      -3.78542950e-06 -5.08842322e-06 -6.69013525e-06 -8.10361871e-06
      -8.49928529e-06 -8.97357040e-06 -8.46660078e-06 -7.41837857e-06
      -6.11267797e-06 -4.96610483e-06 -3.93371920e-06 -3.62302490e-06
      -3.92856828e-06 -4.12842110e-06 -4.47891216e-06 -4.75380284e-06
      -5.31431897e-06 -6.22876541e-06 -6.67833729e-06 -6.88036880e-06
      -6.62589355e-06 -6.16325815e-06 -6.14868532e-06 -5.92313700e-06
      -5.79745392e-06 -5.26126587e-06 -4.33031482e-06 -3.15768307e-06
      -1.74449042e-06 -4.50934323e-07 1.21497544e-06 5.09789379e-06
      7.06105220e-06 7.12560814e-06 7.08205607e-06 6.65428206e-06
      6.34861726e-06 5.76975799e-06 5.78768959e-06 6.34805656e-06
      6.11847599e-06 5.18482830e-06 4.60353294e-06 4.61585660e-06
      5.34545916e-06 6.02040654e-06 6.09604331e-06 5.98500446e-06
      5.14408839e-06 5.50896902e-06 5.76373805e-06 5.64490301e-06
      3.78373238e-06 2.59991566e-06 1.90984042e-06 2.67064593e-06
      3.34425363e-06 4.34019967e-06 4.26633733e-06 4.37593144e-06
      5.17721764e-06 5.54817598e-06 5.50342747e-06 5.91055277e-06
      6.42052464e-06 6.43408657e-06 6.51991604e-06 7.15985016e-06
      7.57212274e-06 7.96467975e-06 8.19933939e-06 8.39640688e-06
      8.09781068e-06 7.87394220e-06 8.10447455e-06 7.83996620e-06
      7.94228436e-06 7.21753258e-06 6.51586288e-06 6.07916036e-06
      5.50047662e-06 4.70024543e-06 4.43303816e-06 4.91894934e-06
      5.27861766e-06 5.59120554e-06 5.65683285e-06 6.45547789e-06
      6.98274926e-06 7.06632227e-06 6.44612737e-06 6.46707576e-06
      6.56017164e-06 5.99008081e-06 5.69368376e-06 4.30048340e-06
      4.32854858e-06 5.01989780e-06 5.39021539e-06 5.70328621e-06
      5.47640775e-06 5.50197274e-06 5.85824864e-06 6.62777302e-06
      7.03018850e-06 6.57843293e-06 5.79093785e-06 5.44784189e-06
      4.79270875e-06 4.68932512e-06 5.14420981e-06 5.05120670e-06
      5.50603454e-06 5.19487548e-06 4.22201310e-06 2.64902178e-06
      1.38673983e-07 -1.35185098e-06 -2.43717705e-06 -2.35502648e-06
      -2.40983741e-06 -2.70711962e-06 -2.84294674e-06 -2.08898746e-06
      -6.98316910e-07 -3.32672094e-08 -9.68070850e-08 -1.23592116e-07
      -2.68703872e-07 1.75290467e-08 3.64519678e-07 4.37009476e-07
      3.85934584e-07 3.01525859e-07 4.41852990e-07 -3.47558036e-08
      -2.01989508e-07 -3.68670811e-07 -5.73116836e-07 -7.61974718e-07
      -7.62002855e-07 -1.05802133e-06 -2.72214061e-06 -4.29826150e-06
      -5.49841661e-06 -6.26972451e-06 -7.31754881e-06 -8.09784433e-06
      -8.87579881e-06 -9.04785793e-06 -8.15490603e-06 -7.06423543e-06
      -4.95814902e-06 -3.16360183e-06 -2.02566707e-06 -1.84534156e-06
      -2.44735179e-06 -3.70877456e-06 -4.25680309e-06 -4.57817714e-06
      -5.23491781e-06 -6.64217487e-06 -7.73583997e-06 -7.81756989e-06
      -7.38118752e-06 -6.91965124e-06 -6.41584847e-06 -5.67237612e-06
      -5.34576247e-06 -4.88328260e-06 -4.28665408e-06 -2.80550444e-06
      -7.72746034e-07 1.73301646e-06 5.66579183e-06 8.39295353e-06
      8.70638814e-06 8.29189139e-06 7.67243637e-06 7.68112932e-06
      7.46431442e-06 7.40870655e-06 7.36005904e-06 7.35028880e-06
      6.83610870e-06 6.30228305e-06 5.63151707e-06 6.16402895e-06
      7.15611441e-06 7.55103156e-06 7.18605770e-06 6.23344567e-06
      6.04000343e-06 6.22620519e-06 6.87994770e-06 6.15948557e-06
      4.26934048e-06 2.41150701e-06 1.87075455e-06 2.51035863e-06
      3.54737608e-06 4.37616654e-06 4.39912037e-06 4.27112991e-06
      4.76883633e-06 4.94872620e-06 5.13069199e-06 5.70104976e-06
      6.82239124e-06 6.90426941e-06 6.63146784e-06 7.01054751e-06
      7.32712761e-06 7.96828408e-06 8.72797864e-06 8.81507094e-06
      8.44926853e-06 8.01433362e-06 7.59048498e-06 7.60587818e-06
      7.91880484e-06 7.83380165e-06 7.19238096e-06 6.27506552e-06
      5.12029783e-06 4.76477135e-06 4.37846938e-06 4.86874433e-06
      5.56932991e-06 5.80881215e-06 6.14571218e-06 6.59576835e-06
      7.01000999e-06 6.59527814e-06 6.12376607e-06 6.07366883e-06
      6.28427370e-06 5.50088134e-06 4.39633686e-06 3.67219764e-06
      3.52006373e-06 4.20880951e-06 5.09958545e-06 5.72431918e-06
      5.79312200e-06 5.60210856e-06 5.78387517e-06 6.47892648e-06
      6.72293618e-06 6.27239251e-06 5.67260940e-06 5.13716941e-06
      4.77875528e-06 4.70895202e-06 4.79632263e-06 4.92982826e-06
      5.13962277e-06 5.42310590e-06 4.86854697e-06 2.79315350e-06
      3.41697728e-07 -1.91710615e-06 -2.38113103e-06 -1.72495345e-06
      -1.46511138e-06 -2.20402171e-06 -2.28030581e-06 -1.28172314e-06
      -1.65520703e-07 3.62931161e-07 3.08316174e-07 1.52651694e-07
      -4.69896605e-07 -9.88583793e-08 5.33379307e-07 6.28769442e-07</_></support_vectors>
  <decision_functions>
    <_>
      <sv_count>1</sv_count>
      <rho>1.0128261066871338e+00</rho>
      <alpha>
        1.</alpha>
      <index>
        0</index></_></decision_functions></my_svm>
</opencv_storage>
